{"learner":{"attributes":{},"feature_names":["having_IP_Address","URL_Length","Shortining_Service","having_At_Symbol","double_slash_redirecting","Prefix_Suffix","having_Sub_Domain","SSLfinal_State","Domain_registeration_length","Favicon","port","HTTPS_token","URL_of_Anchor","Links_in_tags","SFH","Submitting_to_email","Abnormal_URL","Redirect","on_mouseover","RightClick","popUpWidnow","Iframe","age_of_domain","DNSRecord","web_traffic","Page_Rank","Google_Index","Links_pointing_to_page","Statistical_report","Request_URL_part_0"],"feature_types":["int","int","int","int","int","int","int","int","int","int","int","int","int","int","int","int","int","int","int","int","int","int","int","int","int","int","int","int","int","int"],"gradient_booster":{"model":{"gbtree_model_param":{"num_parallel_tree":"1","num_trees":"100"},"iteration_indptr":[0,1,2,3,4,5,6,7,8,9,10,11,12,13,14,15,16,17,18,19,20,21,22,23,24,25,26,27,28,29,30,31,32,33,34,35,36,37,38,39,40,41,42,43,44,45,46,47,48,49,50,51,52,53,54,55,56,57,58,59,60,61,62,63,64,65,66,67,68,69,70,71,72,73,74,75,76,77,78,79,80,81,82,83,84,85,86,87,88,89,90,91,92,93,94,95,96,97,98,99,100],"tree_info":[0,0,0,0,0,0,0,0,0,0,0,0,0,0,0,0,0,0,0,0,0,0,0,0,0,0,0,0,0,0,0,0,0,0,0,0,0,0,0,0,0,0,0,0,0,0,0,0,0,0,0,0,0,0,0,0,0,0,0,0,0,0,0,0,0,0,0,0,0,0,0,0,0,0,0,0,0,0,0,0,0,0,0,0,0,0,0,0,0,0,0,0,0,0,0,0,0,0,0,0],"trees":[{"base_weights":[8.584253E-4,-1.7812063E0,1.3530781E0,-2.2387409E-1,-9.706198E-1,-1.6597339E0,1.4830451E0,-1.678364E0,-2.204865E-1,-1.926176E0,1.421344E-1,1.133771E0,1.6536688E0,-1.7584325E0,1.4404742E-1,-4.3924597E-1,1.7005686E-1,6.24576E-2,-2.0631552E0,1.736214E-1,5.9070235E-1,1.3833175E0,1.7460369E-1,-9.5467046E-2,-1.8106829E-1,-1.21778026E-1,3.050797E-3,-1.0090748E-1,-2.186799E-1,2.7406855E-2,1.7640543E-1,1.0804415E-1,1.7238657E-1],"categories":[],"categories_nodes":[],"categories_segments":[],"categories_sizes":[],"default_left":[0,0,0,0,0,0,0,0,0,0,0,0,0,0,0,0,0,0,0,0,0,0,0,0,0,0,0,0,0,0,0,0,0],"id":0,"left_children":[1,3,5,-1,7,9,11,13,15,17,-1,19,21,23,-1,25,-1,-1,27,-1,29,31,-1,-1,-1,-1,-1,-1,-1,-1,-1,-1,-1],"loss_changes":[5.270474E3,3.477815E2,4.893943E2,0E0,1.813121E2,4.534224E1,6.920068E1,4.646649E1,7.1047485E1,1.8126831E1,0E0,1.2807297E2,1.7538574E1,5.4938965E0,0E0,5.5252E1,0E0,0E0,3.7843933E0,0E0,7.717934E1,1.9622162E1,0E0,0E0,0E0,0E0,0E0,0E0,0E0,0E0,0E0,0E0,0E0],"parents":[2147483647,0,0,1,1,2,2,4,4,5,5,6,6,7,7,8,8,9,9,11,11,12,12,13,13,15,15,18,18,20,20,21,21],"right_children":[2,4,6,-1,8,10,12,14,16,18,-1,20,22,24,-1,26,-1,-1,28,-1,30,32,-1,-1,-1,-1,-1,-1,-1,-1,-1,-1,-1],"split_conditions":[1E0,0E0,0E0,-2.2387409E-1,0E0,1E0,1E0,1E0,1E0,0E0,1.421344E-1,0E0,0E0,1E0,1.4404742E-1,1E0,1.7005686E-1,6.24576E-2,1E0,1.736214E-1,1E0,1E0,1.7460369E-1,-9.5467046E-2,-1.8106829E-1,-1.21778026E-1,3.050797E-3,-1.0090748E-1,-2.186799E-1,2.7406855E-2,1.7640543E-1,1.0804415E-1,1.7238657E-1],"split_indices":[7,12,12,0,13,5,24,5,5,27,0,24,13,20,0,29,0,0,10,0,12,6,0,0,0,0,0,0,0,0,0,0,0],"split_type":[0,0,0,0,0,0,0,0,0,0,0,0,0,0,0,0,0,0,0,0,0,0,0,0,0,0,0,0,0,0,0,0,0],"sum_hessian":[2.1851519E3,9.426E2,1.2425519E3,6.0138617E2,3.4121378E2,5.0897926E1,1.1916539E3,1.7493074E2,1.6628304E2,4.719177E1,3.7061598E0,3.9359418E2,7.9805975E2,1.7097751E2,3.953237E0,1.4997594E2,1.6307102E1,2.2236958E0,4.496807E1,1.8555507E2,2.080391E2,2.0729787E2,5.9076184E2,1.1612634E1,1.5936487E2,5.5839474E1,9.413646E1,5.6827784E0,3.9285294E1,1.6480057E2,4.323853E1,1.11926025E2,9.537184E1],"tree_param":{"num_deleted":"0","num_feature":"30","num_nodes":"33","size_leaf_vector":"1"}},{"base_weights":[2.538981E-3,-1.5867598E0,1.2454863E0,-1.9899748E-1,-8.680528E-1,-1.4824909E0,1.3667421E0,-1.4943767E0,-1.9761467E-1,-1.7197392E0,1.3315533E-1,1.0395508E0,1.5278826E0,-1.565437E0,1.3486125E-1,-5.314075E-1,9.3131226E-1,5.8475163E-2,-1.8417225E0,1.6068289E-1,5.373382E-1,1.2724348E0,1.615747E-1,-1.746934E-1,-1.3453571E-1,-7.9951875E-2,7.040144E-2,1.1226022E-1,-1.5062676E-1,-9.291105E-2,-1.9536749E-1,-1.1770598E-2,1.04321264E-1,7.842127E-2,1.4626712E-1],"categories":[],"categories_nodes":[],"categories_segments":[],"categories_sizes":[],"default_left":[0,0,0,0,0,0,0,0,0,0,0,0,0,0,0,0,0,0,0,0,0,0,0,0,0,0,0,0,0,0,0,0,0,0,0],"id":1,"left_children":[1,3,5,-1,7,9,11,13,15,17,-1,19,21,23,-1,25,27,-1,29,-1,31,33,-1,-1,-1,-1,-1,-1,-1,-1,-1,-1,-1,-1,-1],"loss_changes":[4.288117E3,2.7434277E2,4.0495264E2,0E0,1.4421744E2,3.721939E1,5.9928955E1,3.8026245E1,6.356602E1,1.4763382E1,0E0,1.097168E2,1.5442749E1,4.596161E0,0E0,4.3561836E1,1.9669964E1,0E0,2.9336853E0,0E0,6.8842865E1,1.7822235E1,0E0,0E0,0E0,0E0,0E0,0E0,0E0,0E0,0E0,0E0,0E0,0E0,0E0],"parents":[2147483647,0,0,1,1,2,2,4,4,5,5,6,6,7,7,8,8,9,9,11,11,12,12,13,13,15,15,16,16,18,18,20,20,21,21],"right_children":[2,4,6,-1,8,10,12,14,16,18,-1,20,22,24,-1,26,28,-1,30,-1,32,34,-1,-1,-1,-1,-1,-1,-1,-1,-1,-1,-1,-1,-1],"split_conditions":[1E0,0E0,0E0,-1.9899748E-1,0E0,1E0,1E0,1E0,1E0,0E0,1.3315533E-1,0E0,0E0,1E0,1.3486125E-1,1E0,0E0,5.8475163E-2,1E0,1.6068289E-1,1E0,1E0,1.615747E-1,-1.746934E-1,-1.3453571E-1,-7.9951875E-2,7.040144E-2,1.1226022E-1,-1.5062676E-1,-9.291105E-2,-1.9536749E-1,-1.1770598E-2,1.04321264E-1,7.842127E-2,1.4626712E-1],"split_indices":[7,12,12,0,13,5,24,5,12,27,0,24,13,24,0,1,7,0,15,0,6,29,0,0,0,0,0,0,0,0,0,0,0,0,0],"split_type":[0,0,0,0,0,0,0,0,0,0,0,0,0,0,0,0,0,0,0,0,0,0,0,0,0,0,0,0,0,0,0,0,0,0,0],"sum_hessian":[2.1687424E3,9.5164355E2,1.2170989E3,6.08493E2,3.4315057E2,5.131879E1,1.1657802E3,1.767767E2,1.6637389E2,4.7687218E1,3.631574E0,3.871446E2,7.7863556E2,1.7290434E2,3.8723588E0,1.2881586E2,3.755804E1,2.2066066E0,4.548061E1,1.8076295E2,2.0638164E2,2.0323976E2,5.753958E2,9.095618E1,8.194816E1,1.0613522E2,2.2680624E1,3.5325333E1,2.2327082E0,5.9856873E0,3.9494923E1,9.02659E1,1.1611573E2,5.8423676E1,1.4481609E2],"tree_param":{"num_deleted":"0","num_feature":"30","num_nodes":"35","size_leaf_vector":"1"}},{"base_weights":[3.4085882E-3,-1.4399215E0,1.1570314E0,-1.8110083E-1,-7.8374106E-1,-1.3485892E0,1.2707738E0,-1.350606E0,-1.7804618E-1,-1.5649372E0,1.2556252E-1,9.585831E-1,1.4264789E0,-1.4148445E0,1.2712066E-1,-3.6511505E-1,1.5355526E-1,5.480491E-2,-1.6769974E0,1.5043494E-1,4.8882633E-1,1.1784275E0,1.5127933E-1,-7.200088E-2,-1.4608812E-1,-1.530864E-1,-9.636096E-3,-8.122362E-2,-1.7799596E-1,1.9829636E-2,1.5976219E-1,8.8728905E-2,1.5122454E-1],"categories":[],"categories_nodes":[],"categories_segments":[],"categories_sizes":[],"default_left":[0,0,0,0,0,0,0,0,0,0,0,0,0,0,0,0,0,0,0,0,0,0,0,0,0,0,0,0,0,0,0,0,0],"id":2,"left_children":[1,3,5,-1,7,9,11,13,15,17,-1,19,21,23,-1,25,-1,-1,27,-1,29,31,-1,-1,-1,-1,-1,-1,-1,-1,-1,-1,-1],"loss_changes":[3.5434836E3,2.2877771E2,3.3879883E2,0E0,1.1761853E2,3.1175629E1,5.3655273E1,3.163684E1,5.4126587E1,1.235894E1,0E0,9.661859E1,1.4343628E1,4.494873E0,0E0,4.7305496E1,0E0,0E0,2.6612854E0,0E0,6.590091E1,1.7994354E1,0E0,0E0,0E0,0E0,0E0,0E0,0E0,0E0,0E0,0E0,0E0],"parents":[2147483647,0,0,1,1,2,2,4,4,5,5,6,6,7,7,8,8,9,9,11,11,12,12,13,13,15,15,18,18,20,20,21,21],"right_children":[2,4,6,-1,8,10,12,14,16,18,-1,20,22,24,-1,26,-1,-1,28,-1,30,32,-1,-1,-1,-1,-1,-1,-1,-1,-1,-1,-1],"split_conditions":[1E0,0E0,0E0,-1.8110083E-1,0E0,1E0,1E0,1E0,1E0,0E0,1.2556252E-1,0E0,0E0,1E0,1.2712066E-1,1E0,1.5355526E-1,5.480491E-2,1E0,1.5043494E-1,1E0,1E0,1.5127933E-1,-7.200088E-2,-1.4608812E-1,-1.530864E-1,-9.636096E-3,-8.122362E-2,-1.7799596E-1,1.9829636E-2,1.5976219E-1,8.8728905E-2,1.5122454E-1],"split_indices":[7,12,12,0,13,5,24,5,5,27,0,24,13,20,0,26,0,0,10,0,12,6,0,0,0,0,0,0,0,0,0,0,0],"split_type":[0,0,0,0,0,0,0,0,0,0,0,0,0,0,0,0,0,0,0,0,0,0,0,0,0,0,0,0,0,0,0,0,0],"sum_hessian":[2.126143E3,9.443686E2,1.1817744E3,6.021037E2,3.422649E2,5.0845562E1,1.1309288E3,1.761643E2,1.6610059E2,4.7313972E1,3.5315874E0,3.7872894E2,7.521999E2,1.7240057E2,3.7637262E0,1.50462E2,1.5638591E1,2.1869311E0,4.512704E1,1.7417221E2,2.0455672E2,1.9795816E2,5.5424176E2,1.1746696E1,1.6065388E2,2.7309229E1,1.2315277E2,5.747076E0,3.9379967E1,1.6302045E2,4.153627E1,1.0769246E2,9.02657E1],"tree_param":{"num_deleted":"0","num_feature":"30","num_nodes":"33","size_leaf_vector":"1"}},{"base_weights":[4.043262E-3,-1.3237959E0,1.0828619E0,-1.6763161E-1,-7.1176565E-1,-1.2433821E0,1.1900442E0,-8.424785E-1,1.4638491E-1,-1.444124E0,1.19034424E-1,8.887286E-1,1.3426921E0,-1.292361E0,-3.2921374E-1,5.140985E-2,-1.5494266E0,1.4210306E-1,4.4620705E-1,1.0975811E0,1.4292824E-1,-1.4618805E-1,-1.0897408E-1,-9.7954124E-2,6.6235596E-3,-7.7507555E-2,-1.657437E-1,-1.5022601E-2,9.178808E-2,8.1748165E-2,1.4259912E-1],"categories":[],"categories_nodes":[],"categories_segments":[],"categories_sizes":[],"default_left":[0,0,0,0,0,0,0,0,0,0,0,0,0,0,0,0,0,0,0,0,0,0,0,0,0,0,0,0,0,0,0],"id":3,"left_children":[1,3,5,-1,7,9,11,13,-1,15,-1,17,19,21,23,-1,25,-1,27,29,-1,-1,-1,-1,-1,-1,-1,-1,-1,-1,-1],"loss_changes":[2.9614683E3,1.9874915E2,2.858744E2,0E0,9.8045395E1,2.6502632E1,4.898291E1,7.387453E1,0E0,1.055323E1,0E0,8.646918E1,1.3757568E1,4.284973E0,3.9062447E1,0E0,2.4916077E0,0E0,5.7351788E1,1.657106E1,0E0,0E0,0E0,0E0,0E0,0E0,0E0,0E0,0E0,0E0,0E0],"parents":[2147483647,0,0,1,1,2,2,4,4,5,5,6,6,7,7,9,9,11,11,12,12,13,13,14,14,16,16,18,18,19,19],"right_children":[2,4,6,-1,8,10,12,14,-1,16,-1,18,20,22,24,-1,26,-1,28,30,-1,-1,-1,-1,-1,-1,-1,-1,-1,-1,-1],"split_conditions":[1E0,0E0,0E0,-1.6763161E-1,1E0,1E0,1E0,0E0,1.4638491E-1,0E0,1.19034424E-1,0E0,0E0,1E0,1E0,5.140985E-2,1E0,1.4210306E-1,1E0,1E0,1.4292824E-1,-1.4618805E-1,-1.0897408E-1,-9.7954124E-2,6.6235596E-3,-7.7507555E-2,-1.657437E-1,-1.5022601E-2,9.178808E-2,8.1748165E-2,1.4259912E-1],"split_indices":[7,12,12,0,5,5,24,13,0,27,0,24,13,24,29,0,18,0,6,6,0,0,0,0,0,0,0,0,0,0,0],"split_type":[0,0,0,0,0,0,0,0,0,0,0,0,0,0,0,0,0,0,0,0,0,0,0,0,0,0,0,0,0,0,0],"sum_hessian":[2.0653452E3,9.2571857E2,1.1396266E3,5.862872E2,3.394314E2,4.972886E1,1.0898977E3,3.207719E2,1.8659496E1,4.6315243E1,3.413616E0,3.6877872E2,7.2111896E2,1.7013164E2,1.5064027E2,2.1653805E0,4.4149864E1,1.6640347E2,2.0237526E2,1.9181737E2,5.2930164E2,8.92484E1,8.088324E1,5.6404488E1,9.423579E1,6.405231E0,3.7744633E1,8.966945E1,1.127058E2,1.05406136E2,8.641123E1],"tree_param":{"num_deleted":"0","num_feature":"30","num_nodes":"31","size_leaf_vector":"1"}},{"base_weights":[4.3333233E-3,-1.2295071E0,1.0187429E0,-1.5715687E-1,-6.503852E-1,-1.1574875E0,1.1200806E0,-1.1363045E0,-1.447106E-1,-1.3460318E0,1.1333878E-1,8.2619077E-1,1.2717973E0,-1.1899765E0,1.1352873E-1,2.4080203E-1,-8.443344E-1,4.825941E-2,-1.4465792E0,1.3517988E0,4.068845E-1,1.0264599E0,1.360056E-1,-1.3311093E-1,-9.412781E-2,-7.708659E-2,5.8280002E-2,-9.010273E-2,8.930022E-2,-6.6202566E-2,-1.5510914E-1,9.584164E-2,1.3732104E-1,1.3833644E-2,1.4805892E-1,5.399655E-2,1.2225123E-1],"categories":[],"categories_nodes":[],"categories_segments":[],"categories_sizes":[],"default_left":[0,0,0,0,0,0,0,0,0,0,0,0,0,0,0,0,0,0,0,0,0,0,0,0,0,0,0,0,0,0,0,0,0,0,0,0,0],"id":4,"left_children":[1,3,5,-1,7,9,11,13,15,17,-1,19,21,23,-1,25,27,-1,29,31,33,35,-1,-1,-1,-1,-1,-1,-1,-1,-1,-1,-1,-1,-1,-1,-1],"loss_changes":[2.4962395E3,1.7723938E2,2.4267712E2,0E0,8.2361115E1,2.2772934E1,4.5603516E1,2.2214966E1,4.490255E1,9.138908E0,0E0,7.859302E1,1.3506348E1,4.6320496E0,0E0,3.768755E1,6.625618E0,0E0,2.561699E0,2.2491455E-2,5.780414E1,1.7095657E1,0E0,0E0,0E0,0E0,0E0,0E0,0E0,0E0,0E0,0E0,0E0,0E0,0E0,0E0,0E0],"parents":[2147483647,0,0,1,1,2,2,4,4,5,5,6,6,7,7,8,8,9,9,11,11,12,12,13,13,15,15,16,16,18,18,19,19,20,20,21,21],"right_children":[2,4,6,-1,8,10,12,14,16,18,-1,20,22,24,-1,26,28,-1,30,32,34,36,-1,-1,-1,-1,-1,-1,-1,-1,-1,-1,-1,-1,-1,-1,-1],"split_conditions":[1E0,0E0,0E0,-1.5715687E-1,0E0,1E0,1E0,1E0,1E0,0E0,1.1333878E-1,0E0,0E0,1E0,1.1352873E-1,0E0,1E0,4.825941E-2,1E0,1E0,1E0,1E0,1.360056E-1,-1.3311093E-1,-9.412781E-2,-7.708659E-2,5.8280002E-2,-9.010273E-2,8.930022E-2,-6.6202566E-2,-1.5510914E-1,9.584164E-2,1.3732104E-1,1.3833644E-2,1.4805892E-1,5.399655E-2,1.2225123E-1],"split_indices":[7,12,12,0,13,5,24,5,8,27,0,24,13,27,0,6,5,0,15,26,12,29,0,0,0,0,0,0,0,0,0,0,0,0,0,0,0],"split_type":[0,0,0,0,0,0,0,0,0,0,0,0,0,0,0,0,0,0,0,0,0,0,0,0,0,0,0,0,0,0,0,0,0,0,0,0,0],"sum_hessian":[1.9924066E3,8.988775E2,1.0935292E3,5.640215E2,3.3485602E2,4.8191513E1,1.0453376E3,1.7012767E2,1.6472836E2,4.4907925E1,3.2835855E0,3.5810324E2,6.872344E2,1.6666592E2,3.461743E0,1.0662872E2,5.8099644E1,2.142541E0,4.2765385E1,1.5792168E2,2.0018156E2,1.8516142E2,5.0207297E2,1.0355029E2,6.311563E1,2.6622477E1,8.000624E1,5.672981E1,1.3698367E0,5.889371E0,3.6876015E1,1.0514093E1,1.474076E2,1.610337E2,3.9147865E1,5.4263466E1,1.3089796E2],"tree_param":{"num_deleted":"0","num_feature":"30","num_nodes":"37","size_leaf_vector":"1"}},{"base_weights":[4.596207E-3,-1.1499592E0,9.6254134E-1,-1.4880581E-1,-5.957414E-1,-1.0860283E0,1.0585783E0,-7.0846564E-1,1.3610284E-1,-1.2649239E0,1.0830388E-1,9.027438E-1,1.3518612E-1,-1.101702E0,-2.7769214E-1,4.532816E-2,-1.3622098E0,7.0405114E-1,1.3258047E0,-4.489143E-2,-1.1477705E-1,-1.2962677E-1,-4.3636197E-3,-1.4801107E-1,-6.493836E-2,1.50979385E-2,9.8017424E-2,9.883694E-2,1.4052509E-1],"categories":[],"categories_nodes":[],"categories_segments":[],"categories_sizes":[],"default_left":[0,0,0,0,0,0,0,0,0,0,0,0,0,0,0,0,0,0,0,0,0,0,0,0,0,0,0,0,0],"id":5,"left_children":[1,3,5,-1,7,9,11,13,-1,15,-1,17,-1,19,21,-1,23,25,27,-1,-1,-1,-1,-1,-1,-1,-1,-1,-1],"loss_changes":[2.1173315E3,1.6178162E2,2.0699426E2,0E0,7.388584E1,1.9742317E1,4.4480347E1,5.2756836E1,0E0,8.005951E0,0E0,5.4208557E1,0E0,4.3993225E0,3.5900867E1,0E0,2.5755234E0,6.834343E1,4.2005615E0,0E0,0E0,0E0,0E0,0E0,0E0,0E0,0E0,0E0,0E0],"parents":[2147483647,0,0,1,1,2,2,4,4,5,5,6,6,7,7,9,9,11,11,13,13,14,14,16,16,17,17,18,18],"right_children":[2,4,6,-1,8,10,12,14,-1,16,-1,18,-1,20,22,-1,24,26,28,-1,-1,-1,-1,-1,-1,-1,-1,-1,-1],"split_conditions":[1E0,0E0,0E0,-1.4880581E-1,1E0,1E0,1E0,0E0,1.3610284E-1,0E0,1.0830388E-1,0E0,1.3518612E-1,1E0,1E0,4.532816E-2,1E0,0E0,1E0,-4.489143E-2,-1.1477705E-1,-1.2962677E-1,-4.3636197E-3,-1.4801107E-1,-6.493836E-2,1.50979385E-2,9.8017424E-2,9.883694E-2,1.4052509E-1],"split_indices":[7,12,12,0,5,5,12,13,0,27,0,14,0,20,26,0,13,13,23,0,0,0,0,0,0,0,0,0,0],"split_type":[0,0,0,0,0,0,0,0,0,0,0,0,0,0,0,0,0,0,0,0,0,0,0,0,0,0,0,0,0],"sum_hessian":[1.9124026E3,8.671168E2,1.0452858E3,5.3751965E2,3.2959717E2,4.6347E1,9.989388E2,3.1224738E2,1.734979E1,4.3200813E1,3.1461864E0,6.549906E2,3.439482E2,1.6242157E2,1.4982582E2,2.1188924E0,4.108192E1,4.4748923E2,2.0750136E2,1.1415092E1,1.5100647E2,2.714718E1,1.2267864E2,3.432774E1,6.754181E0,1.4952965E2,2.979596E2,4.210544E1,1.6539592E2],"tree_param":{"num_deleted":"0","num_feature":"30","num_nodes":"29","size_leaf_vector":"1"}},{"base_weights":[4.5405608E-3,-1.0818533E0,9.099018E-1,-1.4201699E-1,-5.4740065E-1,-1.0243789E0,1.0007929E0,-6.5012014E-1,1.304099E-1,-1.195246E0,1.0380043E-1,6.9985884E-1,1.1617694E0,-1.0243968E0,-2.5144675E-1,4.2594664E-2,-1.2901995E0,1.2484078E0,2.9501644E-1,9.1469777E-1,1.2549671E0,-1.20141685E-1,-8.197014E-2,-1.1858328E-1,-3.929953E-3,-5.4125022E-2,-1.406676E-1,8.460163E-2,1.2711808E-1,5.2879457E-3,1.3526319E-1,6.285651E-2,1.270145E-1,1.14667915E-1,1.2908164E-1],"categories":[],"categories_nodes":[],"categories_segments":[],"categories_sizes":[],"default_left":[0,0,0,0,0,0,0,0,0,0,0,0,0,0,0,0,0,0,0,0,0,0,0,0,0,0,0,0,0,0,0,0,0,0,0],"id":6,"left_children":[1,3,5,-1,7,9,11,13,-1,15,-1,17,19,21,23,-1,25,27,29,31,33,-1,-1,-1,-1,-1,-1,-1,-1,-1,-1,-1,-1,-1,-1],"loss_changes":[1.8023368E3,1.4982996E2,1.7674371E2,0E0,6.256372E1,1.722234E1,4.5456726E1,4.571756E1,0E0,7.0683136E0,0E0,7.411171E1,1.3145935E1,4.7618866E0,2.9790642E1,0E0,2.7500153E0,2.2676086E-1,4.968023E1,1.6868713E1,2.5915527E-1,0E0,0E0,0E0,0E0,0E0,0E0,0E0,0E0,0E0,0E0,0E0,0E0,0E0,0E0],"parents":[2147483647,0,0,1,1,2,2,4,4,5,5,6,6,7,7,9,9,11,11,12,12,13,13,14,14,16,16,17,17,18,18,19,19,20,20],"right_children":[2,4,6,-1,8,10,12,14,-1,16,-1,18,20,22,24,-1,26,28,30,32,34,-1,-1,-1,-1,-1,-1,-1,-1,-1,-1,-1,-1,-1,-1],"split_conditions":[1E0,0E0,0E0,-1.4201699E-1,1E0,1E0,1E0,0E0,1.304099E-1,0E0,1.0380043E-1,0E0,0E0,1E0,1E0,4.2594664E-2,1E0,1E0,1E0,1E0,1E0,-1.20141685E-1,-8.197014E-2,-1.1858328E-1,-3.929953E-3,-5.4125022E-2,-1.406676E-1,8.460163E-2,1.2711808E-1,5.2879457E-3,1.3526319E-1,6.285651E-2,1.270145E-1,1.14667915E-1,1.2908164E-1],"split_indices":[7,12,12,0,5,5,24,13,0,27,0,24,13,24,26,0,18,26,12,6,0,0,0,0,0,0,0,0,0,0,0,0,0,0,0],"split_type":[0,0,0,0,0,0,0,0,0,0,0,0,0,0,0,0,0,0,0,0,0,0,0,0,0,0,0,0,0,0,0,0,0,0,0],"sum_hessian":[1.8304264E3,8.3193994E2,9.984864E2,5.0843533E2,3.235046E2,4.435179E1,9.541346E2,3.0711505E2,1.6389584E1,4.13467E1,3.0050917E0,3.343809E2,6.197537E2,1.5759474E2,1.495203E2,2.0948243E0,3.9251877E1,1.4110469E2,1.932762E2,1.7270895E2,4.4704477E2,8.189922E1,7.5695526E1,2.6817041E1,1.2270325E2,6.0428605E0,3.3209015E1,9.601371E0,1.3150331E2,1.5812425E2,3.5151943E1,9.721772E1,7.5491234E1,1.1939121E2,3.2765356E2],"tree_param":{"num_deleted":"0","num_feature":"30","num_nodes":"35","size_leaf_vector":"1"}},{"base_weights":[4.71474E-3,-1.0222813E0,8.644014E-1,-1.3641118E-1,-5.0411963E-1,-9.709951E-1,9.507881E-1,-5.97897E-1,1.2553951E-1,-1.1352756E0,9.972947E-2,6.548203E-1,1.1130663E0,-9.5559895E-1,-2.279979E-1,4.0040746E-2,-1.2287451E0,1.203896E0,2.7022013E-1,8.604464E-1,1.2108555E0,-1.10116266E-1,-7.055002E-2,-7.737109E-2,9.7904205E-3,-4.587021E-2,-1.3460931E-1,8.008242E-2,1.2273532E-1,-2.781038E-2,7.263998E-2,3.6545455E-2,1.0699258E-1,1.099664E-1,1.247983E-1],"categories":[],"categories_nodes":[],"categories_segments":[],"categories_sizes":[],"default_left":[0,0,0,0,0,0,0,0,0,0,0,0,0,0,0,0,0,0,0,0,0,0,0,0,0,0,0,0,0,0,0,0,0,0,0],"id":7,"left_children":[1,3,5,-1,7,9,11,13,-1,15,-1,17,19,21,23,-1,25,27,29,31,33,-1,-1,-1,-1,-1,-1,-1,-1,-1,-1,-1,-1,-1,-1],"loss_changes":[1.5422869E3,1.4029797E2,1.5168854E2,0E0,5.32166E1,1.5113255E1,4.2912292E1,3.981475E1,0E0,6.287384E0,0E0,6.8138535E1,1.342041E1,4.8114014E0,2.6763178E1,0E0,2.8438263E0,2.7703857E-1,4.8214695E1,1.6908066E1,3.5992432E-1,0E0,0E0,0E0,0E0,0E0,0E0,0E0,0E0,0E0,0E0,0E0,0E0,0E0,0E0],"parents":[2147483647,0,0,1,1,2,2,4,4,5,5,6,6,7,7,9,9,11,11,12,12,13,13,14,14,16,16,17,17,18,18,19,19,20,20],"right_children":[2,4,6,-1,8,10,12,14,-1,16,-1,18,20,22,24,-1,26,28,30,32,34,-1,-1,-1,-1,-1,-1,-1,-1,-1,-1,-1,-1,-1,-1],"split_conditions":[1E0,0E0,0E0,-1.3641118E-1,1E0,1E0,1E0,0E0,1.2553951E-1,0E0,9.972947E-2,0E0,0E0,1E0,1E0,4.0040746E-2,1E0,1E0,1E0,1E0,1E0,-1.10116266E-1,-7.055002E-2,-7.737109E-2,9.7904205E-3,-4.587021E-2,-1.3460931E-1,8.008242E-2,1.2273532E-1,-2.781038E-2,7.263998E-2,3.6545455E-2,1.0699258E-1,1.099664E-1,1.247983E-1],"split_indices":[7,12,12,0,5,5,24,13,0,27,0,24,13,27,29,0,15,26,6,29,0,0,0,0,0,0,0,0,0,0,0,0,0,0,0],"split_type":[0,0,0,0,0,0,0,0,0,0,0,0,0,0,0,0,0,0,0,0,0,0,0,0,0,0,0,0,0,0,0,0,0,0,0],"sum_hessian":[1.7448516E3,7.949737E2,9.498779E2,4.7800308E2,3.169706E2,4.2237946E1,9.0763995E2,3.0155853E2,1.5412065E1,3.9374805E1,2.863143E0,3.2320486E2,5.844351E2,1.5250189E2,1.4905664E2,2.070651E0,3.7304153E1,1.3225719E2,1.9094766E2,1.658337E2,4.186014E2,9.424565E1,5.8256237E1,5.5219402E1,9.383724E1,5.5822277E0,3.1721926E1,9.206108E0,1.2305109E2,8.689319E1,1.0405448E2,5.0127907E1,1.15705795E2,1.124496E2,3.061518E2],"tree_param":{"num_deleted":"0","num_feature":"30","num_nodes":"35","size_leaf_vector":"1"}},{"base_weights":[4.7764787E-3,-9.691349E-1,8.2206625E-1,-1.3172255E-1,-4.6470773E-1,-9.2395496E-1,9.0415996E-1,-5.504403E-1,1.2131615E-1,-1.0827442E0,9.601426E-2,7.4214286E-1,1.2270241E-1,-8.9301807E-1,-2.0667847E-1,3.76508E-2,-1.175381E0,5.3918725E-1,1.1986661E0,-1.076497E-1,-6.867005E-2,-1.07139826E-1,-1.517191E-3,-4.017904E-2,-1.2957612E-1,2.6249967E-3,8.184887E-2,8.335336E-2,1.2894522E-1],"categories":[],"categories_nodes":[],"categories_segments":[],"categories_sizes":[],"default_left":[0,0,0,0,0,0,0,0,0,0,0,0,0,0,0,0,0,0,0,0,0,0,0,0,0,0,0,0,0],"id":8,"left_children":[1,3,5,-1,7,9,11,13,-1,15,-1,17,-1,19,21,-1,23,25,27,-1,-1,-1,-1,-1,-1,-1,-1,-1,-1],"loss_changes":[1.3228425E3,1.325365E2,1.3035803E2,0E0,4.542884E1,1.3327518E1,4.426117E1,3.475992E1,0E0,5.6267395E0,0E0,5.2864563E1,0E0,4.875412E0,2.4726017E1,0E0,2.8601532E0,5.7515533E1,4.7899017E0,0E0,0E0,0E0,0E0,0E0,0E0,0E0,0E0,0E0,0E0],"parents":[2147483647,0,0,1,1,2,2,4,4,5,5,6,6,7,7,9,9,11,11,13,13,14,14,16,16,17,17,18,18],"right_children":[2,4,6,-1,8,10,12,14,-1,16,-1,18,-1,20,22,-1,24,26,28,-1,-1,-1,-1,-1,-1,-1,-1,-1,-1],"split_conditions":[1E0,0E0,0E0,-1.3172255E-1,1E0,1E0,1E0,0E0,1.2131615E-1,0E0,9.601426E-2,0E0,1.2270241E-1,1E0,1E0,3.76508E-2,1E0,0E0,1E0,-1.076497E-1,-6.867005E-2,-1.07139826E-1,-1.517191E-3,-4.017904E-2,-1.2957612E-1,2.6249967E-3,8.184887E-2,8.335336E-2,1.2894522E-1],"split_indices":[7,12,12,0,5,5,12,13,0,27,0,14,0,24,26,0,10,13,23,0,0,0,0,0,0,0,0,0,0],"split_type":[0,0,0,0,0,0,0,0,0,0,0,0,0,0,0,0,0,0,0,0,0,0,0,0,0,0,0,0,0],"sum_hessian":[1.6599287E3,7.57308E2,9.026208E2,4.4713895E2,3.10169E2,4.007277E1,8.6254803E2,2.957303E2,1.4438728E1,3.735026E1,2.7225068E0,5.7653467E2,2.8601337E2,1.4731999E2,1.484103E2,2.0466223E0,3.530364E1,4.0061505E2,1.759196E2,7.574344E1,7.157655E1,2.6075521E1,1.2233478E2,5.3380184E0,2.996562E1,1.4162135E2,2.589937E2,3.705784E1,1.3886176E2],"tree_param":{"num_deleted":"0","num_feature":"30","num_nodes":"29","size_leaf_vector":"1"}},{"base_weights":[4.5667333E-3,-9.209656E-1,7.805701E-1,-1.27759E-1,-4.2879122E-1,-8.817948E-1,8.5831714E-1,-5.072276E-1,1.17607795E-1,-1.0359216E0,9.2594676E-2,6.965613E-1,1.191712E-1,-8.6993504E-1,-2.0687637E-1,3.541137E-2,-1.128222E0,4.996496E-1,1.1569837E0,-1.2204595E-1,3.964815E-3,-4.15851E-2,9.70666E-2,-1.267973E-1,-3.972148E-2,2.3666087E-3,7.693943E-2,7.845826E-2,1.2527314E-1],"categories":[],"categories_nodes":[],"categories_segments":[],"categories_sizes":[],"default_left":[0,0,0,0,0,0,0,0,0,0,0,0,0,0,0,0,0,0,0,0,0,0,0,0,0,0,0,0,0],"id":9,"left_children":[1,3,5,-1,7,9,11,13,-1,15,-1,17,-1,19,21,-1,23,25,27,-1,-1,-1,-1,-1,-1,-1,-1,-1,-1],"loss_changes":[1.1353102E3,1.25987976E2,1.11883545E2,0E0,3.8914253E1,1.1800219E1,4.3494446E1,3.1511986E1,0E0,5.060005E0,0E0,4.981363E1,0E0,4.1963615E1,3.9886074E1,0E0,3.0005722E0,5.019358E1,4.92688E0,0E0,0E0,0E0,0E0,0E0,0E0,0E0,0E0,0E0,0E0],"parents":[2147483647,0,0,1,1,2,2,4,4,5,5,6,6,7,7,9,9,11,11,13,13,14,14,16,16,17,17,18,18],"right_children":[2,4,6,-1,8,10,12,14,-1,16,-1,18,-1,20,22,-1,24,26,28,-1,-1,-1,-1,-1,-1,-1,-1,-1,-1],"split_conditions":[1E0,0E0,0E0,-1.27759E-1,1E0,1E0,1E0,1E0,1.17607795E-1,0E0,9.2594676E-2,0E0,1.191712E-1,1E0,0E0,3.541137E-2,1E0,0E0,1E0,-1.2204595E-1,3.964815E-3,-4.15851E-2,9.70666E-2,-1.267973E-1,-3.972148E-2,2.3666087E-3,7.693943E-2,7.845826E-2,1.2527314E-1],"split_indices":[7,12,12,0,5,5,12,24,0,27,0,14,0,6,14,0,13,13,23,0,0,0,0,0,0,0,0,0,0],"split_type":[0,0,0,0,0,0,0,0,0,0,0,0,0,0,0,0,0,0,0,0,0,0,0,0,0,0,0,0,0],"sum_hessian":[1.5787351E3,7.1991364E2,8.588214E2,4.165153E2,3.0339838E2,3.790948E1,8.209119E2,2.899131E2,1.3485268E1,3.5324677E1,2.5848038E0,5.548165E2,2.660954E2,1.3046533E2,1.5944777E2,2.0229359E0,3.3301743E1,3.9007568E2,1.6474086E2,9.3927055E1,3.6538273E1,1.359653E2,2.3482473E1,2.7340366E1,5.9613757E0,1.4149158E2,2.485841E2,3.55739E1,1.2916696E2],"tree_param":{"num_deleted":"0","num_feature":"30","num_nodes":"29","size_leaf_vector":"1"}},{"base_weights":[4.47963E-3,-8.752572E-1,7.415555E-1,-1.24377966E-1,-3.939147E-1,-8.425084E-1,8.1521183E-1,-7.623298E-1,-6.253303E-2,-9.9235284E-1,8.9423075E-2,4.964272E-1,1.0010157E0,-7.960755E-1,8.574752E-2,-2.9482326E-1,8.0089265E-1,3.3310708E-2,-1.084504E0,1.1068324E0,1.2108629E-1,7.3998284E-1,1.1117562E0,-1.17482655E-1,-6.830155E-2,-4.9890477E-2,6.4801864E-2,-1.3357313E-1,9.754604E-2,-3.168148E-2,-1.2272965E-1,6.6134E-2,1.13480404E-1,-7.127585E-2,4.233221E-2,4.414512E-2,1.1455561E-1,9.8104045E-2,1.1563821E-1],"categories":[],"categories_nodes":[],"categories_segments":[],"categories_sizes":[],"default_left":[0,0,0,0,0,0,0,0,0,0,0,0,0,0,0,0,0,0,0,0,0,0,0,0,0,0,0,0,0,0,0,0,0,0,0,0,0,0,0],"id":10,"left_children":[1,3,5,-1,7,9,11,13,15,17,-1,19,21,23,-1,25,27,-1,29,31,33,35,37,-1,-1,-1,-1,-1,-1,-1,-1,-1,-1,-1,-1,-1,-1,-1,-1],"loss_changes":[9.746052E2,1.2105469E2,9.6106476E1,0E0,3.64052E1,1.0471849E1,4.5821167E1,8.406372E0,3.1981941E1,4.5602684E0,0E0,6.6292595E1,1.3429993E1,5.147072E0,0E0,2.446333E1,1.3919027E1,0E0,3.1604843E0,6.236572E-1,4.5830925E1,1.7638405E1,8.7332153E-1,0E0,0E0,0E0,0E0,0E0,0E0,0E0,0E0,0E0,0E0,0E0,0E0,0E0,0E0,0E0,0E0],"parents":[2147483647,0,0,1,1,2,2,4,4,5,5,6,6,7,7,8,8,9,9,11,11,12,12,13,13,15,15,16,16,18,18,19,19,20,20,21,21,22,22],"right_children":[2,4,6,-1,8,10,12,14,16,18,-1,20,22,24,-1,26,28,-1,30,32,34,36,38,-1,-1,-1,-1,-1,-1,-1,-1,-1,-1,-1,-1,-1,-1,-1,-1],"split_conditions":[1E0,0E0,0E0,-1.24377966E-1,0E0,1E0,1E0,1E0,1E0,0E0,8.9423075E-2,0E0,0E0,1E0,8.574752E-2,1E0,1E0,3.3310708E-2,1E0,1E0,1E0,1E0,1E0,-1.17482655E-1,-6.830155E-2,-4.9890477E-2,6.4801864E-2,-1.3357313E-1,9.754604E-2,-3.168148E-2,-1.2272965E-1,6.6134E-2,1.13480404E-1,-7.127585E-2,4.233221E-2,4.414512E-2,1.1455561E-1,9.8104045E-2,1.1563821E-1],"split_indices":[7,12,12,0,13,5,24,5,12,27,0,24,13,26,0,1,18,0,18,26,23,6,0,0,0,0,0,0,0,0,0,0,0,0,0,0,0,0,0],"split_type":[0,0,0,0,0,0,0,0,0,0,0,0,0,0,0,0,0,0,0,0,0,0,0,0,0,0,0,0,0,0,0,0,0,0,0,0,0,0,0],"sum_hessian":[1.5010157E3,6.842007E2,8.1681506E2,3.866172E2,2.9758347E2,3.582918E1,7.809859E2,1.403018E2,1.5728166E2,3.3377968E1,2.4512134E0,2.8893326E2,4.9205264E2,1.3793669E2,2.3651254E0,1.2445711E2,3.282456E1,1.9997455E0,3.1378223E1,1.09274574E2,1.7965869E2,1.4885663E2,3.43196E2,2.9550707E1,1.0838598E2,1.026985E2,2.1758606E1,1.9768789E0,3.0847681E1,5.4259005E0,2.5952324E1,7.91169E0,1.0136288E2,4.7433926E1,1.3222476E2,8.6946266E1,6.1910355E1,9.319564E1,2.5000037E2],"tree_param":{"num_deleted":"0","num_feature":"30","num_nodes":"39","size_leaf_vector":"1"}},{"base_weights":[4.4736653E-3,-8.337978E-1,7.05957E-1,-1.2147146E-1,-3.632526E-1,-8.0650634E-1,7.7584565E-1,-7.136221E-1,-5.6719873E-2,-9.526483E-1,8.64616E-2,6.0926515E-1,1.138584E-1,-7.455861E-1,8.30581E-2,-2.6666966E-1,7.3520577E-1,-1.1340558E-1,-2.021495E-1,4.1243353E-1,1.097282E0,-9.038548E-2,-4.8484538E-2,-4.51537E-2,5.921478E-2,9.1802575E-2,-1.279022E-1,-9.4272494E-2,6.0117256E-2,2.5693659E-2,1.2567057E-1,7.141534E-2,1.2019109E-1],"categories":[],"categories_nodes":[],"categories_segments":[],"categories_sizes":[],"default_left":[0,0,0,0,0,0,0,0,0,0,0,0,0,0,0,0,0,0,0,0,0,0,0,0,0,0,0,0,0,0,0,0,0],"id":11,"left_children":[1,3,5,-1,7,9,11,13,15,17,-1,19,-1,21,-1,23,25,-1,27,29,31,-1,-1,-1,-1,-1,-1,-1,-1,-1,-1,-1,-1],"loss_changes":[8.389752E2,1.1606415E2,8.273074E1,0E0,3.1343498E1,9.321896E0,4.4199005E1,7.345497E0,2.6290422E1,4.1920433E0,0E0,4.866028E1,0E0,5.0930176E0,0E0,2.0079906E1,1.3383211E1,0E0,5.0515656E0,4.77185E1,5.008148E0,0E0,0E0,0E0,0E0,0E0,0E0,0E0,0E0,0E0,0E0,0E0,0E0],"parents":[2147483647,0,0,1,1,2,2,4,4,5,5,6,6,7,7,8,8,9,9,11,11,13,13,15,15,16,16,18,18,19,19,20,20],"right_children":[2,4,6,-1,8,10,12,14,16,18,-1,20,-1,22,-1,24,26,-1,28,30,32,-1,-1,-1,-1,-1,-1,-1,-1,-1,-1,-1,-1],"split_conditions":[1E0,0E0,0E0,-1.2147146E-1,0E0,1E0,1E0,1E0,1E0,1E0,8.64616E-2,0E0,1.138584E-1,1E0,8.30581E-2,1E0,0E0,-1.1340558E-1,1E0,1E0,1E0,-9.038548E-2,-4.8484538E-2,-4.51537E-2,5.921478E-2,9.1802575E-2,-1.279022E-1,-9.4272494E-2,6.0117256E-2,2.5693659E-2,1.2567057E-1,7.141534E-2,1.2019109E-1],"split_indices":[7,12,12,0,13,5,12,5,12,6,0,14,0,27,0,1,7,0,29,5,23,0,0,0,0,0,0,0,0,0,0,0,0],"split_type":[0,0,0,0,0,0,0,0,0,0,0,0,0,0,0,0,0,0,0,0,0,0,0,0,0,0,0,0,0,0,0,0,0],"sum_hessian":[1.4247466E3,6.4900183E2,7.7574475E2,3.5778528E2,2.9121655E2,3.379723E1,7.419475E2,1.3527176E2,1.5594478E2,3.1474663E1,2.3225675E0,5.102876E2,2.3165991E2,1.3303519E2,2.2365723E0,1.2378977E2,3.2155014E1,2.4936136E1,6.538527E0,3.6494116E2,1.4534644E2,8.1250145E1,5.178504E1,1.0225319E2,2.1536581E1,2.9978285E1,2.1767282E0,3.311839E0,3.226688E0,3.092823E2,5.5658882E1,3.2856926E1,1.1248951E2],"tree_param":{"num_deleted":"0","num_feature":"30","num_nodes":"33","size_leaf_vector":"1"}},{"base_weights":[4.3284725E-3,-7.9501575E-1,6.6989225E-1,-1.1895593E-1,-3.3503518E-1,-7.705944E-1,7.360404E-1,-3.998509E-1,1.1131884E-1,-9.1265863E-1,8.367986E-2,4.1190532E-1,9.350628E-1,-1.0385551E0,-2.4760844E-1,3.2454934E-2,-1.0092942E0,1.0534929E0,5.718503E-2,6.5368384E-1,1.0608217E0,3.3415128E-2,-1.2287944E-1,-6.795419E-2,9.125124E-3,-2.2635922E-2,-1.17048435E-1,5.8116872E-2,1.0850375E-1,-1.4737214E-2,1.18417345E-1,1.2239873E-2,8.978523E-2,9.1429584E-2,1.111692E-1],"categories":[],"categories_nodes":[],"categories_segments":[],"categories_sizes":[],"default_left":[0,0,0,0,0,0,0,0,0,0,0,0,0,0,0,0,0,0,0,0,0,0,0,0,0,0,0,0,0,0,0,0,0,0,0],"id":12,"left_children":[1,3,5,-1,7,9,11,13,-1,15,-1,17,19,21,23,-1,25,27,29,31,33,-1,-1,-1,-1,-1,-1,-1,-1,-1,-1,-1,-1,-1,-1],"loss_changes":[7.2143384E2,1.1141345E2,7.107245E1,0E0,2.7277588E1,8.293678E0,4.5285553E1,2.6419548E1,0E0,4.0070534E0,0E0,6.1640953E1,1.4800201E1,1.4118809E1,3.2679634E1,0E0,3.3683052E0,8.0672455E-1,4.0666645E1,1.777245E1,1.2271423E0,0E0,0E0,0E0,0E0,0E0,0E0,0E0,0E0,0E0,0E0,0E0,0E0,0E0,0E0],"parents":[2147483647,0,0,1,1,2,2,4,4,5,5,6,6,7,7,9,9,11,11,12,12,13,13,14,14,16,16,17,17,18,18,19,19,20,20],"right_children":[2,4,6,-1,8,10,12,14,-1,16,-1,18,20,22,24,-1,26,28,30,32,34,-1,-1,-1,-1,-1,-1,-1,-1,-1,-1,-1,-1,-1,-1],"split_conditions":[1E0,0E0,0E0,-1.1895593E-1,1E0,1E0,1E0,1E0,1.1131884E-1,0E0,8.367986E-2,0E0,0E0,1E0,1E0,3.2454934E-2,1E0,1E0,1E0,1E0,1E0,3.3415128E-2,-1.2287944E-1,-6.795419E-2,9.125124E-3,-2.2635922E-2,-1.17048435E-1,5.8116872E-2,1.0850375E-1,-1.4737214E-2,1.18417345E-1,1.2239873E-2,8.978523E-2,9.1429584E-2,1.111692E-1],"split_indices":[7,12,12,0,5,5,24,26,0,27,0,24,13,11,24,0,21,26,12,29,0,0,0,0,0,0,0,0,0,0,0,0,0,0,0],"split_type":[0,0,0,0,0,0,0,0,0,0,0,0,0,0,0,0,0,0,0,0,0,0,0,0,0,0,0,0,0,0,0,0,0,0,0],"sum_hessian":[1.3540405E3,6.1510406E2,7.3893646E2,3.302497E2,2.8485437E2,3.1975122E1,7.069613E2,2.7334467E2,1.1509727E1,2.9775705E1,2.1994166E0,2.7011383E2,4.3684747E2,5.1493168E1,2.2185149E2,1.9863478E0,2.7789358E1,9.546857E1,1.7464528E2,1.3685016E2,2.999973E2,6.175587E0,4.531758E1,9.708939E1,1.2476209E2,5.1549525E0,2.2634405E1,7.192797E0,8.827577E1,1.4855128E2,2.6093983E1,4.3562965E1,9.328719E1,8.22007E1,2.1779662E2],"tree_param":{"num_deleted":"0","num_feature":"30","num_nodes":"35","size_leaf_vector":"1"}},{"base_weights":[4.4560833E-3,-7.567255E-1,6.3803315E-1,-1.1676587E-1,-3.075943E-1,-7.3877615E-1,7.0076144E-1,-6.429061E-1,-2.6288662E-2,-1.1969501E-1,-1.669383E-1,5.337902E-1,1.0914996E0,-6.7095715E-1,7.717075E-2,-5.906636E-1,2.2104385E-1,-8.334519E-1,5.350044E-1,3.3963442E-1,1.047711E0,9.6463484E-1,1.1371644E-1,-5.3539313E-2,-1.0150695E-1,-8.460879E-2,6.5686174E-2,5.1498946E-2,-4.2787384E-2,-9.940689E-2,-1.6733436E-2,-7.199974E-2,9.2780724E-2,1.9212341E-2,1.2123263E-1,6.394993E-2,1.1662003E-1,3.5823144E-2,1.0852491E-1],"categories":[],"categories_nodes":[],"categories_segments":[],"categories_sizes":[],"default_left":[0,0,0,0,0,0,0,0,0,0,0,0,0,0,0,0,0,0,0,0,0,0,0,0,0,0,0,0,0,0,0,0,0,0,0,0,0,0,0],"id":13,"left_children":[1,3,5,-1,7,9,11,13,15,-1,17,19,21,23,-1,25,27,29,31,33,35,37,-1,-1,-1,-1,-1,-1,-1,-1,-1,-1,-1,-1,-1,-1,-1,-1,-1],"loss_changes":[6.211169E2,1.0761807E2,6.1220673E1,0E0,2.6477844E1,7.952196E0,4.3309082E1,5.6009827E0,2.1597439E1,0E0,7.4648876E0,4.6869843E1,6.434631E-2,5.3410873E0,0E0,1.5574369E1,2.0755136E1,6.98822E-1,4.5704E0,4.4179058E1,5.5082397E0,3.9739037E0,0E0,0E0,0E0,0E0,0E0,0E0,0E0,0E0,0E0,0E0,0E0,0E0,0E0,0E0,0E0,0E0,0E0],"parents":[2147483647,0,0,1,1,2,2,4,4,5,5,6,6,7,7,8,8,10,10,11,11,12,12,13,13,15,15,16,16,17,17,18,18,19,19,20,20,21,21],"right_children":[2,4,6,-1,8,10,12,14,16,-1,18,20,22,24,-1,26,28,30,32,34,36,38,-1,-1,-1,-1,-1,-1,-1,-1,-1,-1,-1,-1,-1,-1,-1,-1,-1],"split_conditions":[1E0,0E0,0E0,-1.1676587E-1,0E0,1E0,1E0,1E0,0E0,-1.1969501E-1,0E0,0E0,1E0,1E0,7.717075E-2,1E0,1E0,1E0,1E0,1E0,1E0,1E0,1.1371644E-1,-5.3539313E-2,-1.0150695E-1,-8.460879E-2,6.5686174E-2,5.1498946E-2,-4.2787384E-2,-9.940689E-2,-1.6733436E-2,-7.199974E-2,9.2780724E-2,1.9212341E-2,1.2123263E-1,6.394993E-2,1.1662003E-1,3.5823144E-2,1.0852491E-1],"split_indices":[7,12,12,0,13,29,12,5,6,0,13,14,0,25,0,13,8,27,4,5,23,27,0,0,0,0,0,0,0,0,0,0,0,0,0,0,0,0,0],"split_type":[0,0,0,0,0,0,0,0,0,0,0,0,0,0,0,0,0,0,0,0,0,0,0,0,0,0,0,0,0,0,0,0,0,0,0,0,0,0,0],"sum_hessian":[1.285909E3,5.840432E2,7.0186584E2,3.0415573E2,2.798875E2,3.0114399E1,6.7175146E2,1.2710042E2,1.527871E2,1.6111893E1,1.4002504E1,4.722951E2,1.9945633E2,1.2514457E2,1.9558539E0,4.613224E1,1.06654854E2,7.086413E0,6.9160914E0,3.439965E2,1.2829863E2,5.8647522E1,1.408088E2,9.16103E1,3.3534267E1,3.8559227E1,7.5730133E0,7.354635E1,3.3108505E1,5.3129907E0,1.7734225E0,1.4500905E0,5.466001E0,2.953018E2,4.8694683E1,3.030183E1,9.79968E1,1.0388431E1,4.825909E1],"tree_param":{"num_deleted":"0","num_feature":"30","num_nodes":"39","size_leaf_vector":"1"}},{"base_weights":[4.256887E-3,-7.2170466E-1,6.04605E-1,-1.14848964E-1,-2.8367546E-1,4.2644173E-1,1.0693458E0,-6.011756E-1,-2.4063077E-2,1.0412447E-1,7.989589E-1,9.3539315E-1,1.1183764E-1,-1.0260898E0,-4.852265E-1,-2.0328857E-1,6.708067E-1,-5.206726E-1,5.0532144E-1,5.6163687E-1,1.0429816E0,3.3378425E-1,1.0615821E-1,-2.3208428E-2,-1.1215929E-1,-2.7257184E-2,-9.312951E-2,-3.645852E-2,5.4468073E-2,-1.2507609E-1,8.4021814E-2,-6.7815445E-2,1.2501472E-1,-1.717148E-3,8.619163E-2,-4.577402E-3,7.891657E-2,1.1345422E-1,6.8766035E-2,-9.975415E-2,1.0051668E-1],"categories":[],"categories_nodes":[],"categories_segments":[],"categories_sizes":[],"default_left":[0,0,0,0,0,0,0,0,0,0,0,0,0,0,0,0,0,0,0,0,0,0,0,0,0,0,0,0,0,0,0,0,0,0,0,0,0,0,0,0,0],"id":14,"left_children":[1,3,5,-1,7,9,11,13,15,17,19,21,-1,23,25,27,29,31,33,35,37,39,-1,-1,-1,-1,-1,-1,-1,-1,-1,-1,-1,-1,-1,-1,-1,-1,-1,-1,-1],"loss_changes":[5.34007E2,1.0335602E2,5.5073715E1,0E0,2.265536E1,5.8325592E1,1.701355E-1,5.5956E0,1.9109772E1,6.592609E1,1.2473846E1,3.8767433E0,0E0,1.6822319E0,9.143074E0,1.4902699E1,1.1295691E1,2.955062E1,2.983105E1,1.6135513E1,2.7990875E0,1.0943815E1,0E0,0E0,0E0,0E0,0E0,0E0,0E0,0E0,0E0,0E0,0E0,0E0,0E0,0E0,0E0,0E0,0E0,0E0,0E0],"parents":[2147483647,0,0,1,1,2,2,4,4,5,5,6,6,7,7,8,8,9,9,10,10,11,11,13,13,14,14,15,15,16,16,17,17,18,18,19,19,20,20,21,21],"right_children":[2,4,6,-1,8,10,12,14,16,18,20,22,-1,24,26,28,30,32,34,36,38,40,-1,-1,-1,-1,-1,-1,-1,-1,-1,-1,-1,-1,-1,-1,-1,-1,-1,-1,-1],"split_conditions":[1E0,0E0,1E0,-1.14848964E-1,0E0,1E0,1E0,1E0,1E0,1E0,1E0,1E0,1.1183764E-1,1E0,1E0,1E0,1E0,1E0,0E0,1E0,1E0,1E0,1.0615821E-1,-2.3208428E-2,-1.1215929E-1,-2.7257184E-2,-9.312951E-2,-3.645852E-2,5.4468073E-2,-1.2507609E-1,8.4021814E-2,-6.7815445E-2,1.2501472E-1,-1.717148E-3,8.619163E-2,-4.577402E-3,7.891657E-2,1.1345422E-1,6.8766035E-2,-9.975415E-2,1.0051668E-1],"split_indices":[7,12,12,0,13,6,0,26,12,24,24,27,0,11,25,1,18,5,13,23,8,29,0,0,0,0,0,0,0,0,0,0,0,0,0,0,0,0,0,0,0],"split_type":[0,0,0,0,0,0,0,0,0,0,0,0,0,0,0,0,0,0,0,0,0,0,0,0,0,0,0,0,0,0,0,0,0,0,0,0,0,0,0,0,0],"sum_hessian":[1.2232642E3,5.536135E2,6.696506E2,2.7958426E2,2.7402924E2,4.854614E2,1.8418918E2,1.22679405E2,1.5134984E2,2.6095334E2,2.2450807E2,5.4733513E1,1.2945567E2,2.4616991E1,9.8062416E1,1.2087929E2,3.0470554E1,1.01924774E2,1.5902856E2,1.1549045E2,1.0901763E2,1.0121952E1,4.461156E1,3.0113106E0,2.160568E1,6.7496025E1,3.056639E1,9.9857895E1,2.1021393E1,1.9515784E0,2.8518976E1,9.416736E1,7.7574124E0,6.489476E1,9.4133804E1,3.1689913E1,8.380053E1,8.493756E1,2.4080065E1,3.230397E0,6.891555E0],"tree_param":{"num_deleted":"0","num_feature":"30","num_nodes":"41","size_leaf_vector":"1"}},{"base_weights":[4.3830383E-3,-6.881024E-1,5.7336265E-1,-1.1316302E-1,-2.6193404E-1,3.9944082E-1,1.0488104E0,-8.581504E-1,-1.2847342E-1,2.0911019E-1,9.760737E-1,9.0751964E-1,1.1014279E-1,4.553732E-1,-1.0977722E0,-5.082103E-1,1.6059045E-1,-2.436924E-1,5.238761E-1,5.765155E-1,1.101261E0,3.1124893E-1,1.03938356E-1,-5.158762E-2,1.0099249E-1,-1.2061097E-1,-8.145186E-2,-9.565934E-2,3.346332E-2,-5.043236E-3,1.2530538E-1,-4.1121196E-2,1.2129664E-1,1.7776407E-2,8.316144E-2,-2.8439645E-2,1.1166131E-1,-4.87266E-2,1.1333578E-1,-8.7060176E-2,9.828523E-2],"categories":[],"categories_nodes":[],"categories_segments":[],"categories_sizes":[],"default_left":[0,0,0,0,0,0,0,0,0,0,0,0,0,0,0,0,0,0,0,0,0,0,0,0,0,0,0,0,0,0,0,0,0,0,0,0,0,0,0,0,0],"id":15,"left_children":[1,3,5,-1,7,9,11,13,15,17,19,21,-1,23,25,27,29,31,33,35,37,39,-1,-1,-1,-1,-1,-1,-1,-1,-1,-1,-1,-1,-1,-1,-1,-1,-1,-1,-1],"loss_changes":[4.5969388E2,9.917244E1,5.2541397E1,0E0,2.134809E1,5.143827E1,2.7113342E-1,1.5969273E1,2.4398088E1,5.073097E1,5.1922607E0,3.769806E0,0E0,4.985779E0,3.021164E-1,3.6594906E1,2.9234928E1,3.6193775E1,2.2194584E1,1.4216267E1,5.0190125E0,9.472029E0,0E0,0E0,0E0,0E0,0E0,0E0,0E0,0E0,0E0,0E0,0E0,0E0,0E0,0E0,0E0,0E0,0E0,0E0,0E0],"parents":[2147483647,0,0,1,1,2,2,4,4,5,5,6,6,7,7,8,8,9,9,10,10,11,11,13,13,14,14,15,15,16,16,17,17,18,18,19,19,20,20,21,21],"right_children":[2,4,6,-1,8,10,12,14,16,18,20,22,-1,24,26,28,30,32,34,36,38,40,-1,-1,-1,-1,-1,-1,-1,-1,-1,-1,-1,-1,-1,-1,-1,-1,-1,-1,-1],"split_conditions":[1E0,0E0,1E0,-1.1316302E-1,1E0,0E0,1E0,1E0,1E0,0E0,1E0,1E0,1.1014279E-1,1E0,1E0,1E0,0E0,1E0,1E0,1E0,0E0,1E0,1.03938356E-1,-5.158762E-2,1.0099249E-1,-1.2061097E-1,-8.145186E-2,-9.565934E-2,3.346332E-2,-5.043236E-3,1.2530538E-1,-4.1121196E-2,1.2129664E-1,1.7776407E-2,8.316144E-2,-2.8439645E-2,1.1166131E-1,-4.87266E-2,1.1333578E-1,-8.7060176E-2,9.828523E-2],"split_indices":[7,12,12,0,26,14,0,11,24,13,23,27,0,27,27,6,14,5,24,24,12,29,0,0,0,0,0,0,0,0,0,0,0,0,0,0,0,0,0,0,0],"split_type":[0,0,0,0,0,0,0,0,0,0,0,0,0,0,0,0,0,0,0,0,0,0,0,0,0,0,0,0,0,0,0,0,0,0,0,0,0,0,0,0,0],"sum_hessian":[1.1647045E3,5.2524164E2,6.394628E2,2.565677E2,2.6867395E2,4.6954166E2,1.699212E2,4.8148296E1,2.2052565E2,3.5404407E2,1.15497574E2,5.1060127E1,1.1886108E2,7.289485E0,4.085881E1,9.498622E1,1.2553944E2,1.4527963E2,2.0876443E2,2.8891209E1,8.660636E1,9.855458E0,4.1204666E1,2.6747074E0,4.6147776E0,2.7198145E1,1.3660666E1,6.1913822E1,3.30724E1,1.0601514E2,1.9524298E1,1.3093901E2,1.4340627E1,9.8998695E1,1.0976574E2,1.1320246E1,1.7570963E1,1.4343979E0,8.517197E1,3.4637818E0,6.3916764E0],"tree_param":{"num_deleted":"0","num_feature":"30","num_nodes":"41","size_leaf_vector":"1"}},{"base_weights":[4.5670425E-3,-1.07903E0,3.4101823E-1,-1.094685E0,7.534048E-2,-2.4115063E-1,6.040596E-1,-1.1167353E-1,-8.583912E-1,-2.975212E-1,1.0740812E-1,4.460517E-1,1.0295839E0,-1.1636887E-1,-3.9942923E-1,-8.9188373E-1,-1.6860116E-1,2.6947975E-1,9.771347E-1,8.807554E-1,1.0860192E-1,9.28788E-2,-7.38328E-2,3.0532083E-2,-1.0861122E-1,-5.4403573E-2,1.0915875E-2,1.4004955E-2,1.1519821E-1,5.5484373E-2,1.1152058E-1,2.9098904E-2,1.0183348E-1],"categories":[],"categories_nodes":[],"categories_segments":[],"categories_sizes":[],"default_left":[0,0,0,0,0,0,0,0,0,0,0,0,0,0,0,0,0,0,0,0,0,0,0,0,0,0,0,0,0,0,0,0,0],"id":16,"left_children":[1,3,5,7,-1,9,11,-1,13,15,-1,17,19,-1,21,23,25,27,29,31,-1,-1,-1,-1,-1,-1,-1,-1,-1,-1,-1,-1,-1],"loss_changes":[4.05604E2,8.386353E0,1.3014612E2,4.0530396E-1,0E0,1.9960365E1,3.8875015E1,0E0,3.2715034E0,1.9374447E1,0E0,3.9906883E1,3.6756897E-1,0E0,6.165876E0,1.0838497E1,2.2023441E1,3.67172E1,5.591133E0,3.6498146E0,0E0,0E0,0E0,0E0,0E0,0E0,0E0,0E0,0E0,0E0,0E0,0E0,0E0],"parents":[2147483647,0,0,1,1,2,2,3,3,5,5,6,6,8,8,9,9,11,11,12,12,14,14,15,15,16,16,17,17,18,18,19,19],"right_children":[2,4,6,8,-1,10,12,-1,14,16,-1,18,20,-1,22,24,26,28,30,32,-1,-1,-1,-1,-1,-1,-1,-1,-1,-1,-1,-1,-1],"split_conditions":[0E0,1E0,1E0,1E0,7.534048E-2,1E0,1E0,-1.1167353E-1,1E0,1E0,1.0740812E-1,0E0,1E0,-1.1636887E-1,1E0,1E0,1E0,1E0,1E0,1E0,1.0860192E-1,9.28788E-2,-7.38328E-2,3.0532083E-2,-1.0861122E-1,-5.4403573E-2,1.0915875E-2,1.4004955E-2,1.1519821E-1,5.5484373E-2,1.1152058E-1,2.9098904E-2,1.0183348E-1],"split_indices":[12,5,7,7,0,5,12,0,29,26,0,14,0,0,18,11,24,5,23,27,0,0,0,0,0,0,0,0,0,0,0,0,0],"split_type":[0,0,0,0,0,0,0,0,0,0,0,0,0,0,0,0,0,0,0,0,0,0,0,0,0,0,0,0,0,0,0,0,0],"sum_hessian":[1.1105223E3,2.625925E2,8.479299E2,2.607673E2,1.8251868E0,2.6391367E2,5.8401624E2,2.3510217E2,2.5665123E1,2.5380923E2,1.0104425E1,4.2737088E2,1.5664536E2,1.4490616E1,1.1174508E1,4.4184856E1,2.0962439E2,3.2186588E2,1.05505005E2,4.7633896E1,1.0901146E2,1.9177656E0,9.2567425E0,6.0878696E0,3.809699E1,8.873157E1,1.20892815E2,2.8170844E2,4.0157436E1,2.723258E1,7.827242E1,9.599299E0,3.8034595E1],"tree_param":{"num_deleted":"0","num_feature":"30","num_nodes":"33","size_leaf_vector":"1"}},{"base_weights":[4.5904596E-3,-1.06262E0,3.1979647E-1,-1.0785551E0,7.3111124E-2,-2.2122149E-1,5.7079667E-1,-1.1035197E-1,-8.222791E-1,-5.171206E-1,9.689479E-3,2.5537282E-1,7.94454E-1,-1.0128708E-1,-1.20298274E-1,-8.2440466E-1,-3.3520433E-1,1.1472906E-1,-1.0199897E0,9.681488E-1,-6.722802E-2,4.8839003E-1,9.5499307E-1,-8.152674E-2,4.9761906E-2,-1.1962421E-1,-4.765151E-2,6.75258E-2,-4.253676E-2,-6.721808E-3,8.1538826E-2,1.06668115E-1,-1.4856303E-1,4.405911E-2,1.0083834E-1,-5.1968496E-2,3.696106E-2,1.8713128E-2,9.946046E-2,7.5935E-2,1.02638565E-1],"categories":[],"categories_nodes":[],"categories_segments":[],"categories_sizes":[],"default_left":[0,0,0,0,0,0,0,0,0,0,0,0,0,0,0,0,0,0,0,0,0,0,0,0,0,0,0,0,0,0,0,0,0,0,0,0,0,0,0,0,0],"id":17,"left_children":[1,3,5,7,-1,9,11,-1,13,15,17,19,21,-1,23,25,27,29,31,33,35,37,39,-1,-1,-1,-1,-1,-1,-1,-1,-1,-1,-1,-1,-1,-1,-1,-1,-1,-1],"loss_changes":[3.5725095E2,7.710022E0,1.1145823E2,6.307678E-1,0E0,1.7806824E1,3.9325104E1,0E0,3.2584133E0,6.108467E0,1.6050987E1,5.3857292E1,1.5619034E1,0E0,3.2097428E0,4.835678E0,6.9771795E0,1.7211956E1,1.4933623E1,1.1042557E0,3.220814E1,1.7302992E1,2.205307E0,0E0,0E0,0E0,0E0,0E0,0E0,0E0,0E0,0E0,0E0,0E0,0E0,0E0,0E0,0E0,0E0,0E0,0E0],"parents":[2147483647,0,0,1,1,2,2,3,3,5,5,6,6,8,8,9,9,10,10,11,11,12,12,14,14,15,15,16,16,17,17,18,18,19,19,20,20,21,21,22,22],"right_children":[2,4,6,8,-1,10,12,-1,14,16,18,20,22,-1,24,26,28,30,32,34,36,38,40,-1,-1,-1,-1,-1,-1,-1,-1,-1,-1,-1,-1,-1,-1,-1,-1,-1,-1],"split_conditions":[0E0,1E0,1E0,1E0,7.3111124E-2,0E0,1E0,-1.1035197E-1,1E0,1E0,0E0,0E0,0E0,-1.0128708E-1,1E0,1E0,1E0,1E0,0E0,1E0,1E0,1E0,1E0,-8.152674E-2,4.9761906E-2,-1.1962421E-1,-4.765151E-2,6.75258E-2,-4.253676E-2,-6.721808E-3,8.1538826E-2,1.06668115E-1,-1.4856303E-1,4.405911E-2,1.0083834E-1,-5.1968496E-2,3.696106E-2,1.8713128E-2,9.946046E-2,7.5935E-2,1.02638565E-1],"split_indices":[12,5,7,7,0,13,24,0,6,0,7,24,13,0,29,27,9,12,27,26,6,6,0,0,0,0,0,0,0,0,0,0,0,0,0,0,0,0,0,0,0],"split_type":[0,0,0,0,0,0,0,0,0,0,0,0,0,0,0,0,0,0,0,0,0,0,0,0,0,0,0,0,0,0,0,0,0,0,0,0,0,0,0,0,0],"sum_hessian":[1.0600004E3,2.4115097E2,8.188494E2,2.394227E2,1.7282692E0,2.5954095E2,5.593085E2,2.1515762E2,2.4265085E1,1.132185E2,1.4632246E2,2.3293799E2,3.263705E2,1.8735435E1,5.5296493E0,4.0788597E1,7.24299E1,1.3358388E2,1.2738575E1,7.19549E1,1.6098308E2,1.1368152E2,2.1268898E2,2.4522426E0,3.0774066E0,1.8536991E1,2.2251606E1,5.401857E0,6.7028046E1,1.0676358E2,2.6820297E1,2.0885212E0,1.0650054E1,5.9456606E0,6.600925E1,7.898474E1,8.1998344E1,7.2126945E1,4.155457E1,5.997386E1,1.5271512E2],"tree_param":{"num_deleted":"0","num_feature":"30","num_nodes":"41","size_leaf_vector":"1"}},{"base_weights":[4.4803796E-3,-1.0476359E0,3.0034792E-1,-1.0638932E0,7.097462E-2,-2.0358023E-1,5.407622E-1,-1.091746E-1,-7.894341E-1,-7.662726E-1,-8.7135196E-2,4.1373992E-1,1.116838E-1,-1.1177715E-1,-3.3002958E-1,3.9543468E-1,-9.988216E-1,9.5552295E-2,-5.224021E-1,2.3313215E-1,9.545062E-1,8.806554E-2,-6.690662E-2,-4.865524E-2,9.0707585E-2,-1.1198171E-1,-7.003742E-2,-3.193591E-2,2.92003E-2,-8.633293E-2,4.0915363E-2,-2.010567E-2,5.2151185E-2,5.261938E-2,1.0886919E-1],"categories":[],"categories_nodes":[],"categories_segments":[],"categories_sizes":[],"default_left":[0,0,0,0,0,0,0,0,0,0,0,0,0,0,0,0,0,0,0,0,0,0,0,0,0,0,0,0,0,0,0,0,0,0,0],"id":18,"left_children":[1,3,5,7,-1,9,11,-1,13,15,17,19,-1,-1,21,23,25,27,29,31,33,-1,-1,-1,-1,-1,-1,-1,-1,-1,-1,-1,-1,-1,-1],"loss_changes":[3.1521555E2,7.1051483E0,9.586212E1,8.246765E-1,0E0,1.6707085E1,3.8711792E1,0E0,3.241889E0,1.2218412E1,1.700589E1,4.277234E1,0E0,0E0,5.267088E0,4.058683E0,5.427666E-1,1.240456E1,2.0423132E1,4.159079E1,5.743065E0,0E0,0E0,0E0,0E0,0E0,0E0,0E0,0E0,0E0,0E0,0E0,0E0,0E0,0E0],"parents":[2147483647,0,0,1,1,2,2,3,3,5,5,6,6,8,8,9,9,10,10,11,11,14,14,15,15,16,16,17,17,18,18,19,19,20,20],"right_children":[2,4,6,8,-1,10,12,-1,14,16,18,20,-1,-1,22,24,26,28,30,32,34,-1,-1,-1,-1,-1,-1,-1,-1,-1,-1,-1,-1,-1,-1],"split_conditions":[0E0,1E0,1E0,1E0,7.097462E-2,1E0,1E0,-1.091746E-1,1E0,1E0,1E0,0E0,1.116838E-1,-1.1177715E-1,1E0,1E0,1E0,0E0,1E0,0E0,1E0,8.806554E-2,-6.690662E-2,-4.865524E-2,9.0707585E-2,-1.1198171E-1,-7.003742E-2,-3.193591E-2,2.92003E-2,-8.633293E-2,4.0915363E-2,-2.010567E-2,5.2151185E-2,5.261938E-2,1.0886919E-1],"split_indices":[12,5,7,7,0,26,5,0,29,11,25,14,0,0,18,27,27,6,6,13,23,0,0,0,0,0,0,0,0,0,0,0,0,0,0],"split_type":[0,0,0,0,0,0,0,0,0,0,0,0,0,0,0,0,0,0,0,0,0,0,0,0,0,0,0,0,0,0,0,0,0,0,0],"sum_hessian":[1.0106093E3,2.2125989E2,7.893494E2,2.1962279E2,1.6370883E0,2.5500052E2,5.3434894E2,1.9668489E2,2.2937902E1,4.2765594E1,2.1223492E2,4.392208E2,9.512812E1,1.2541428E1,1.0396475E1,7.016078E0,3.574952E1,1.5004109E2,6.219383E1,3.303275E2,1.0889329E2,1.9249696E0,8.471505E0,2.5938072E0,4.422271E0,2.3478716E1,1.2270802E1,4.8012085E1,1.0202901E2,4.55843E1,1.660953E1,1.3195575E2,1.9837177E2,2.7150826E1,8.174246E1],"tree_param":{"num_deleted":"0","num_feature":"30","num_nodes":"35","size_leaf_vector":"1"}},{"base_weights":[4.0562716E-3,-1.0334191E0,2.8030115E-1,-1.0500346E0,6.8923E-2,-1.8712904E-1,5.0940466E-1,-1.0812145E-1,-7.5579244E-1,-2.3699152E-1,1.0440089E-1,3.497874E-1,9.8563284E-1,-1.0955607E-1,-3.033984E-1,-8.0008554E-1,-1.249233E-1,2.904143E-2,6.375648E-1,8.0925226E-1,1.0554012E-1,-9.3296796E-2,3.2153383E-2,2.6935602E-2,-9.968781E-2,-4.663884E-2,1.1882297E-2,9.234663E-2,-2.4573267E-2,4.269207E-2,9.602317E-2,1.571575E-2,9.729587E-2],"categories":[],"categories_nodes":[],"categories_segments":[],"categories_sizes":[],"default_left":[0,0,0,0,0,0,0,0,0,0,0,0,0,0,0,0,0,0,0,0,0,0,0,0,0,0,0,0,0,0,0,0,0],"id":19,"left_children":[1,3,5,7,-1,9,11,-1,13,15,-1,17,19,-1,21,23,25,27,29,31,-1,-1,-1,-1,-1,-1,-1,-1,-1,-1,-1,-1,-1],"loss_changes":[2.7788025E2,6.5593567E0,8.2093185E1,1.0390778E0,0E0,1.5752843E1,3.8734863E1,0E0,3.1581154E0,1.52702465E1,0E0,3.566616E1,7.2730255E-1,0E0,4.676182E0,8.738131E0,1.7061298E1,4.541717E1,1.3436882E1,4.193159E0,0E0,0E0,0E0,0E0,0E0,0E0,0E0,0E0,0E0,0E0,0E0,0E0,0E0],"parents":[2147483647,0,0,1,1,2,2,3,3,5,5,6,6,8,8,9,9,11,11,12,12,14,14,15,15,16,16,17,17,18,18,19,19],"right_children":[2,4,6,8,-1,10,12,-1,14,16,-1,18,20,-1,22,24,26,28,30,32,-1,-1,-1,-1,-1,-1,-1,-1,-1,-1,-1,-1,-1],"split_conditions":[0E0,1E0,1E0,1E0,6.8923E-2,1E0,1E0,-1.0812145E-1,1E0,1E0,1.0440089E-1,1E0,1E0,-1.0955607E-1,0E0,1E0,1E0,0E0,1E0,1E0,1.0554012E-1,-9.3296796E-2,3.2153383E-2,2.6935602E-2,-9.968781E-2,-4.663884E-2,1.1882297E-2,9.234663E-2,-2.4573267E-2,4.269207E-2,9.602317E-2,1.571575E-2,9.729587E-2],"split_indices":[12,5,7,7,0,5,12,0,29,26,0,24,0,0,13,11,24,24,6,27,0,0,0,0,0,0,0,0,0,0,0,0,0],"split_type":[0,0,0,0,0,0,0,0,0,0,0,0,0,0,0,0,0,0,0,0,0,0,0,0,0,0,0,0,0,0,0,0,0],"sum_hessian":[9.6757367E2,2.0288191E2,7.646918E2,2.0133047E2,1.5514389E0,2.5158229E2,5.1310944E2,1.7962196E2,2.1708519E1,2.4256561E2,9.016683E0,3.856019E2,1.2750757E2,1.1585554E1,1.0122965E1,3.9243725E1,2.0332188E2,1.8287599E2,2.027259E2,3.97118E1,8.779576E1,4.7972283E0,5.325737E0,6.0417795E0,3.3201946E1,8.4305115E1,1.1901677E2,4.2422966E1,1.4045302E2,1.2405994E2,7.866596E1,8.362257E0,3.1349545E1],"tree_param":{"num_deleted":"0","num_feature":"30","num_nodes":"33","size_leaf_vector":"1"}},{"base_weights":[4.045271E-3,-1.0207853E0,2.625823E-1,-1.037808E0,6.694971E-2,1.4473005E-1,1.1022093E-1,-1.07175484E-1,-7.292525E-1,-1.11568674E-1,5.321286E-1,-1.0746075E-1,-2.8813568E-1,-6.219457E-1,2.2175162E-1,4.08872E-2,6.788374E-1,7.9403035E-2,-6.1602145E-2,-7.938913E-2,-2.3597196E-2,4.0313844E-3,9.4168834E-2,-2.0493021E-2,1.4862373E-1,3.9866403E-2,9.806317E-2],"categories":[],"categories_nodes":[],"categories_segments":[],"categories_sizes":[],"default_left":[0,0,0,0,0,0,0,0,0,0,0,0,0,0,0,0,0,0,0,0,0,0,0,0,0,0,0],"id":20,"left_children":[1,3,5,7,-1,9,-1,-1,11,13,15,-1,17,19,21,23,25,-1,-1,-1,-1,-1,-1,-1,-1,-1,-1],"loss_changes":[2.4578307E2,6.071747E0,7.3138985E1,1.1604309E0,0E0,6.466959E1,0E0,0E0,2.9665337E0,6.690182E1,1.8657661E1,0E0,4.324741E0,1.01200485E1,3.1069296E1,2.1866594E1,1.6484642E1,0E0,0E0,0E0,0E0,0E0,0E0,0E0,0E0,0E0,0E0],"parents":[2147483647,0,0,1,1,2,2,3,3,5,5,8,8,9,9,10,10,12,12,13,13,14,14,15,15,16,16],"right_children":[2,4,6,8,-1,10,-1,-1,12,14,16,-1,18,20,22,24,26,-1,-1,-1,-1,-1,-1,-1,-1,-1,-1],"split_conditions":[0E0,1E0,1E0,1E0,6.694971E-2,1E0,1.1022093E-1,-1.07175484E-1,1E0,1E0,0E0,-1.0746075E-1,1E0,1E0,0E0,0E0,1E0,7.9403035E-2,-6.1602145E-2,-7.938913E-2,-2.3597196E-2,4.0313844E-3,9.4168834E-2,-2.0493021E-2,1.4862373E-1,3.9866403E-2,9.806317E-2],"split_indices":[12,5,5,7,0,6,0,0,29,24,7,0,18,27,14,14,24,0,0,0,0,0,0,0,0,0,0],"split_type":[0,0,0,0,0,0,0,0,0,0,0,0,0,0,0,0,0,0,0,0,0,0,0,0,0,0,0],"sum_hessian":[9.256233E2,1.8587476E2,7.3974854E2,1.8440367E2,1.4710836E0,6.4972394E2,9.00246E1,1.6389832E2,2.0505363E1,3.914541E2,2.582698E2,1.0695579E1,9.809785E0,1.5431004E2,2.3714406E2,5.9688133E1,1.985817E2,1.9505272E0,7.8592577E0,1.0602196E2,4.8288086E1,1.9025273E2,4.689132E1,5.1745712E1,7.94242E0,1.04183235E2,9.439845E1],"tree_param":{"num_deleted":"0","num_feature":"30","num_nodes":"27","size_leaf_vector":"1"}},{"base_weights":[4.124536E-3,-1.0080371E0,2.446353E-1,-1.0254934E0,6.504939E-2,1.3390575E-1,1.09001696E-1,-1.0632219E-1,-6.9760084E-1,-1.0097638E-1,4.993927E-1,3.609029E-2,-8.2921654E-1,-5.62733E-1,2.0243445E-1,7.895122E-2,6.565103E-1,-5.198839E-3,-1.0433074E-1,-7.18946E-2,-2.1321625E-2,-2.0865574E-2,5.0950356E-2,-3.753967E-2,3.652171E-2,4.32748E-2,9.1569334E-2],"categories":[],"categories_nodes":[],"categories_segments":[],"categories_sizes":[],"default_left":[0,0,0,0,0,0,0,0,0,0,0,0,0,0,0,0,0,0,0,0,0,0,0,0,0,0,0],"id":21,"left_children":[1,3,5,7,-1,9,-1,-1,11,13,15,-1,17,19,21,23,25,-1,-1,-1,-1,-1,-1,-1,-1,-1,-1],"loss_changes":[2.1715553E2,5.625717E0,6.732345E1,1.3598328E0,0E0,5.4857048E1,0E0,0E0,3.146534E0,5.4681843E1,1.6458878E1,0E0,3.0208817E0,8.293587E0,2.9869526E1,9.128395E0,1.0147881E1,0E0,0E0,0E0,0E0,0E0,0E0,0E0,0E0,0E0,0E0],"parents":[2147483647,0,0,1,1,2,2,3,3,5,5,8,8,9,9,10,10,12,12,13,13,14,14,15,15,16,16],"right_children":[2,4,6,8,-1,10,-1,-1,12,14,16,-1,18,20,22,24,26,-1,-1,-1,-1,-1,-1,-1,-1,-1,-1],"split_conditions":[0E0,1E0,1E0,1E0,6.504939E-2,1E0,1.09001696E-1,-1.0632219E-1,0E0,1E0,1E0,3.609029E-2,1E0,1E0,0E0,1E0,1E0,-5.198839E-3,-1.0433074E-1,-7.18946E-2,-2.1321625E-2,-2.0865574E-2,5.0950356E-2,-3.753967E-2,3.652171E-2,4.32748E-2,9.1569334E-2],"split_indices":[12,5,5,7,0,6,0,0,27,24,7,0,18,27,13,29,24,0,0,0,0,0,0,0,0,0,0],"split_type":[0,0,0,0,0,0,0,0,0,0,0,0,0,0,0,0,0,0,0,0,0,0,0,0,0,0,0],"sum_hessian":[8.900315E2,1.7027168E2,7.197598E2,1.6887592E2,1.3957673E0,6.3742694E2,8.2332886E1,1.494384E2,1.943752E1,3.8848724E2,2.4893967E2,1.9569428E0,1.7480577E1,1.5370743E2,2.3477983E2,6.812961E1,1.8081006E2,4.043615E0,1.3436962E1,1.0549882E2,4.8208603E1,1.0052372E2,1.342561E2,2.6213463E1,4.1916145E1,9.8468346E1,8.234172E1],"tree_param":{"num_deleted":"0","num_feature":"30","num_nodes":"27","size_leaf_vector":"1"}},{"base_weights":[3.9376128E-3,-9.9645686E-1,2.2759457E-1,-1.0144024E0,6.321751E-2,1.23589635E-1,1.078881E-1,-1.0554906E-1,-6.70418E-1,-1.5840085E-2,6.6753656E-1,-8.944348E-1,4.2405985E-2,-3.2338753E-1,2.2199824E-1,2.4466148E-1,9.697091E-1,-1.0397909E-1,-5.9316665E-2,-6.745596E-2,5.093493E-2,-5.98053E-2,1.2468156E-2,-1.4124599E-2,4.3886926E-2,-5.310308E-2,7.252099E-2,3.3897508E-2,1.0514249E-1],"categories":[],"categories_nodes":[],"categories_segments":[],"categories_sizes":[],"default_left":[0,0,0,0,0,0,0,0,0,0,0,0,0,0,0,0,0,0,0,0,0,0,0,0,0,0,0,0,0],"id":22,"left_children":[1,3,5,7,-1,9,-1,-1,11,13,15,17,19,21,23,25,27,-1,-1,-1,-1,-1,-1,-1,-1,-1,-1,-1,-1],"loss_changes":[1.9203375E2,5.2246857E0,6.197019E1,1.4901428E0,0E0,4.7502777E1,0E0,0E0,3.1251135E0,3.6601913E1,1.6091446E1,2.9385567E-2,2.2108796E0,2.6927713E1,2.2294025E1,2.073544E1,3.467537E0,0E0,0E0,0E0,0E0,0E0,0E0,0E0,0E0,0E0,0E0,0E0,0E0],"parents":[2147483647,0,0,1,1,2,2,3,3,5,5,8,8,9,9,10,10,11,11,12,12,13,13,14,14,15,15,16,16],"right_children":[2,4,6,8,-1,10,-1,-1,12,14,16,18,20,22,24,26,28,-1,-1,-1,-1,-1,-1,-1,-1,-1,-1,-1,-1],"split_conditions":[0E0,1E0,1E0,1E0,6.321751E-2,0E0,1.078881E-1,-1.0554906E-1,1E0,0E0,1E0,1E0,1E0,1E0,1E0,1E0,1E0,-1.0397909E-1,-5.9316665E-2,-6.745596E-2,5.093493E-2,-5.98053E-2,1.2468156E-2,-1.4124599E-2,4.3886926E-2,-5.310308E-2,7.252099E-2,3.3897508E-2,1.0514249E-1],"split_indices":[12,5,5,7,0,14,0,0,6,13,24,29,29,27,7,6,26,0,0,0,0,0,0,0,0,0,0,0,0],"split_type":[0,0,0,0,0,0,0,0,0,0,0,0,0,0,0,0,0,0,0,0,0,0,0,0,0,0,0,0,0],"sum_hessian":[8.562563E2,1.558226E2,7.004337E2,1.5449738E2,1.3252205E0,6.251962E2,7.523745E1,1.3616435E2,1.833302E1,4.9840988E2,1.26786354E2,1.3755384E1,4.577634E0,2.1719566E2,2.8121423E2,5.3593987E1,7.319237E1,7.62506E0,6.130325E0,1.6300912E0,2.947543E0,1.3444588E2,8.274979E1,1.0525984E2,1.7595438E2,2.046107E1,3.313292E1,8.98542E0,6.420695E1],"tree_param":{"num_deleted":"0","num_feature":"30","num_nodes":"29","size_leaf_vector":"1"}},{"base_weights":[3.7684245E-3,-9.8501414E-1,2.1157359E-1,-1.0034673E0,6.1450362E-2,1.1409529E-1,1.06865875E-1,-1.0484519E-1,-6.442589E-1,-9.7068764E-2,4.5453027E-1,-1.0039623E-1,-1.7055345E-1,-5.020812E-1,1.7373957E-1,3.111712E-1,8.708813E-1,-9.0118505E-2,3.4275383E-2,-8.8989854E-2,-3.402527E-2,2.2946429E-3,8.302645E-2,-1.7470451E-2,5.0901324E-2,1.0005399E-1,1.0434936E-2],"categories":[],"categories_nodes":[],"categories_segments":[],"categories_sizes":[],"default_left":[0,0,0,0,0,0,0,0,0,0,0,0,0,0,0,0,0,0,0,0,0,0,0,0,0,0,0],"id":23,"left_children":[1,3,5,7,-1,9,-1,-1,11,13,15,-1,17,19,21,23,25,-1,-1,-1,-1,-1,-1,-1,-1,-1,-1],"loss_changes":[1.700254E2,4.858246E0,5.7004265E1,1.6262665E0,0E0,4.425895E1,0E0,0E0,2.9720793E0,4.1812256E1,1.3793358E1,0E0,3.7467186E0,9.280415E0,2.2624718E1,1.7087526E1,5.838642E0,0E0,0E0,0E0,0E0,0E0,0E0,0E0,0E0,0E0,0E0],"parents":[2147483647,0,0,1,1,2,2,3,3,5,5,8,8,9,9,10,10,12,12,13,13,14,14,15,15,16,16],"right_children":[2,4,6,8,-1,10,-1,-1,12,14,16,-1,18,20,22,24,26,-1,-1,-1,-1,-1,-1,-1,-1,-1,-1],"split_conditions":[0E0,1E0,1E0,1E0,6.1450362E-2,1E0,1.06865875E-1,-1.0484519E-1,0E0,1E0,0E0,-1.0039623E-1,1E0,1E0,0E0,0E0,1E0,-9.0118505E-2,3.4275383E-2,-8.8989854E-2,-3.402527E-2,2.2946429E-3,8.302645E-2,-1.7470451E-2,5.0901324E-2,1.0005399E-1,1.0434936E-2],"split_indices":[12,5,5,7,0,6,0,0,13,24,14,0,29,23,14,7,17,0,0,0,0,0,0,0,0,0,0],"split_type":[0,0,0,0,0,0,0,0,0,0,0,0,0,0,0,0,0,0,0,0,0,0,0,0,0,0,0],"sum_hessian":[8.254641E2,1.4270453E2,6.827596E2,1.4144536E2,1.2591734E0,6.140548E2,6.870477E1,1.2399801E2,1.7447355E1,3.7942252E2,2.3463226E2,9.28074E0,8.1666155E0,1.5169629E2,2.2772623E2,1.7583551E2,5.8796753E1,3.0581126E0,5.108503E0,4.3338303E1,1.0835799E2,1.8603252E2,4.1693707E1,5.0913975E1,1.2492154E2,5.002907E1,8.767681E0],"tree_param":{"num_deleted":"0","num_feature":"30","num_nodes":"27","size_leaf_vector":"1"}},{"base_weights":[3.5407252E-3,-9.744183E-1,1.962741E-1,-9.9343294E-1,5.9744757E-2,1.0509415E-1,1.05922475E-1,-1.0420103E-1,-6.214272E-1,-8.790559E-2,4.2433155E-1,-9.874504E-2,-1.6371763E-1,-4.547748E-1,1.583555E-1,2.8729832E-1,8.37373E-1,-8.778256E-2,3.1293757E-2,-7.614111E-2,-2.4920903E-2,1.0526955E-1,4.6000946E-3,-1.5824152E-2,4.7358777E-2,9.7113565E-2,9.556053E-3],"categories":[],"categories_nodes":[],"categories_segments":[],"categories_sizes":[],"default_left":[0,0,0,0,0,0,0,0,0,0,0,0,0,0,0,0,0,0,0,0,0,0,0,0,0,0,0],"id":24,"left_children":[1,3,5,7,-1,9,-1,-1,11,13,15,-1,17,19,21,23,25,-1,-1,-1,-1,-1,-1,-1,-1,-1,-1],"loss_changes":[1.5066493E2,4.526802E0,5.2428406E1,1.7089539E0,0E0,3.731497E1,0E0,0E0,2.7766657E0,3.4213398E1,1.2671925E1,0E0,3.3354652E0,9.393871E0,2.2747023E1,1.4419257E1,5.494652E0,0E0,0E0,0E0,0E0,0E0,0E0,0E0,0E0,0E0,0E0],"parents":[2147483647,0,0,1,1,2,2,3,3,5,5,8,8,9,9,10,10,12,12,13,13,14,14,15,15,16,16],"right_children":[2,4,6,8,-1,10,-1,-1,12,14,16,-1,18,20,22,24,26,-1,-1,-1,-1,-1,-1,-1,-1,-1,-1],"split_conditions":[0E0,1E0,1E0,1E0,5.9744757E-2,1E0,1.05922475E-1,-1.0420103E-1,0E0,1E0,0E0,-9.874504E-2,1E0,1E0,1E0,0E0,1E0,-8.778256E-2,3.1293757E-2,-7.614111E-2,-2.4920903E-2,1.0526955E-1,4.6000946E-3,-1.5824152E-2,4.7358777E-2,9.7113565E-2,9.556053E-3],"split_indices":[12,5,5,7,0,6,0,0,13,24,14,0,29,7,2,7,17,0,0,0,0,0,0,0,0,0,0],"split_type":[0,0,0,0,0,0,0,0,0,0,0,0,0,0,0,0,0,0,0,0,0,0,0,0,0,0,0],"sum_hessian":[7.9733093E2,1.3059845E2,6.667325E2,1.294011E2,1.197356E0,6.0403186E2,6.270064E1,1.1286221E2,1.6538877E1,3.768975E2,2.2713437E2,8.546779E0,7.9921E0,1.5103914E2,2.2585835E2,1.718244E2,5.5309975E1,2.8622863E0,5.129813E0,5.9532425E1,9.150672E1,2.4273375E1,2.0158498E2,5.0705338E1,1.2111906E2,4.6598293E1,8.711679E0],"tree_param":{"num_deleted":"0","num_feature":"30","num_nodes":"27","size_leaf_vector":"1"}},{"base_weights":[3.292361E-3,-9.64029E-1,1.8222955E-1,-9.8364264E-1,5.809797E-2,9.691294E-2,1.0504679E-1,-1.0360819E-1,-5.991799E-1,-1.8558232E-1,2.9939768E-1,-8.293727E-1,7.424876E-2,5.903452E-1,-3.002885E-1,1.7317452E-1,8.200615E-1,-5.206765E-2,-9.933224E-2,-6.283485E-2,4.4881824E-2,-7.6381765E-2,9.580146E-2,-5.31014E-2,5.7223956E-3,-1.4664945E-2,3.748174E-2,1.3156115E-2,9.278152E-2],"categories":[],"categories_nodes":[],"categories_segments":[],"categories_sizes":[],"default_left":[0,0,0,0,0,0,0,0,0,0,0,0,0,0,0,0,0,0,0,0,0,0,0,0,0,0,0,0,0],"id":25,"left_children":[1,3,5,7,-1,9,-1,-1,11,13,15,17,19,21,23,25,27,-1,-1,-1,-1,-1,-1,-1,-1,-1,-1,-1,-1],"loss_changes":[1.3363411E2,4.2236786E0,4.8159195E1,1.7860641E0,0E0,3.405144E1,0E0,0E0,2.6504397E0,2.231731E1,2.263445E1,1.1686039E-1,1.6431779E0,1.685056E1,1.7961426E1,1.8125961E1,4.8749886E0,0E0,0E0,0E0,0E0,0E0,0E0,0E0,0E0,0E0,0E0,0E0,0E0],"parents":[2147483647,0,0,1,1,2,2,3,3,5,5,8,8,9,9,10,10,11,11,12,12,13,13,14,14,15,15,16,16],"right_children":[2,4,6,8,-1,10,-1,-1,12,14,16,18,20,22,24,26,28,-1,-1,-1,-1,-1,-1,-1,-1,-1,-1,-1,-1],"split_conditions":[0E0,1E0,1E0,1E0,5.809797E-2,0E0,1.0504679E-1,-1.0360819E-1,1E0,1E0,1E0,0E0,1E0,1E0,1E0,1E0,1E0,-5.206765E-2,-9.933224E-2,-6.283485E-2,4.4881824E-2,-7.6381765E-2,9.580146E-2,-5.31014E-2,5.7223956E-3,-1.4664945E-2,3.748174E-2,1.3156115E-2,9.278152E-2],"split_indices":[12,5,5,7,0,13,0,0,6,20,12,6,23,29,27,7,26,0,0,0,0,0,0,0,0,0,0,0,0],"split_type":[0,0,0,0,0,0,0,0,0,0,0,0,0,0,0,0,0,0,0,0,0,0,0,0,0,0,0,0,0],"sum_hessian":[7.7003595E2,1.1952188E2,6.5051404E2,1.1838238E2,1.1395038E0,5.933233E2,5.719073E1,1.0268204E2,1.5700339E1,2.4775417E2,3.4556915E2,1.1528185E1,4.1721544E0,3.1374619E1,2.1637955E2,2.7921292E2,6.635625E1,5.447353E0,6.0808315E0,1.215209E0,2.9569454E0,6.469468E0,2.490515E1,1.312137E2,8.5165855E1,1.0807263E2,1.7114029E2,9.28026E0,5.7075985E1],"tree_param":{"num_deleted":"0","num_feature":"30","num_nodes":"29","size_leaf_vector":"1"}},{"base_weights":[3.083313E-3,-9.529759E-1,1.687141E-1,-9.732001E-1,5.6507617E-2,8.915756E-2,1.0422888E-1,-1.0305919E-1,-5.744107E-1,-2.4015918E-2,5.7620007E-1,-9.832834E-2,-1.485289E-1,-6.331284E-1,7.680484E-2,6.851021E-2,8.3909565E-1,7.1841896E-2,-4.8534274E-2,6.0255446E-2,-9.0878956E-2,-2.662592E-3,6.596655E-2,-5.3191822E-2,5.9123617E-2,3.1536292E-2,1.0412339E-1],"categories":[],"categories_nodes":[],"categories_segments":[],"categories_sizes":[],"default_left":[0,0,0,0,0,0,0,0,0,0,0,0,0,0,0,0,0,0,0,0,0,0,0,0,0,0,0],"id":26,"left_children":[1,3,5,7,-1,9,-1,-1,11,13,15,-1,17,19,21,23,25,-1,-1,-1,-1,-1,-1,-1,-1,-1,-1],"loss_changes":[1.18494225E2,3.9422607E0,4.423204E1,1.9120865E0,0E0,3.2294544E1,0E0,0E0,2.6442156E0,2.929114E1,1.4686253E1,0E0,2.9844527E0,2.3619133E1,2.470117E1,1.2484592E1,7.367035E0,0E0,0E0,0E0,0E0,0E0,0E0,0E0,0E0,0E0,0E0],"parents":[2147483647,0,0,1,1,2,2,3,3,5,5,8,8,9,9,10,10,12,12,13,13,14,14,15,15,16,16],"right_children":[2,4,6,8,-1,10,-1,-1,12,14,16,-1,18,20,22,24,26,-1,-1,-1,-1,-1,-1,-1,-1,-1,-1],"split_conditions":[0E0,1E0,1E0,1E0,5.6507617E-2,0E0,1.0422888E-1,-1.0305919E-1,1E0,1E0,1E0,-9.832834E-2,1E0,1E0,1E0,1E0,1E0,7.1841896E-2,-4.8534274E-2,6.0255446E-2,-9.0878956E-2,-2.662592E-3,6.596655E-2,-5.3191822E-2,5.9123617E-2,3.1536292E-2,1.0412339E-1],"split_indices":[12,5,5,7,0,14,0,0,29,26,7,0,18,11,12,24,23,0,0,0,0,0,0,0,0,0,0],"split_type":[0,0,0,0,0,0,0,0,0,0,0,0,0,0,0,0,0,0,0,0,0,0,0,0,0,0,0],"sum_hessian":[7.46277E2,1.0949469E2,6.367823E2,1.0840933E2,1.0853616E0,5.84641E2,5.2141266E1,9.338545E1,1.5023883E1,4.751757E2,1.0946532E2,6.9972634E0,8.02662E0,6.6732E1,4.084437E2,3.777564E1,7.168968E1,1.9288464E0,6.0977736E0,1.1955273E1,5.477673E1,3.4769775E2,6.0745926E1,1.757293E1,2.0202707E1,2.0676853E1,5.1012825E1],"tree_param":{"num_deleted":"0","num_feature":"30","num_nodes":"27","size_leaf_vector":"1"}},{"base_weights":[3.1677145E-3,-9.4161576E-1,1.561597E-1,-1.0254734E-1,-4.441026E-1,8.213443E-2,1.0345979E-1,-9.6573636E-2,-6.9093998E-3,-9.06853E-2,3.780825E-1,-6.3078515E-2,3.8889596E-1,-4.1774938E-1,1.2944368E-1,2.309322E-1,7.145369E-1,-5.7324465E-2,6.6419885E-2,-7.921977E-2,-2.6211238E-2,1.0053843E-1,2.7212708E-3,1.0144497E-2,8.8691406E-2,2.996147E-2,9.587833E-2],"categories":[],"categories_nodes":[],"categories_segments":[],"categories_sizes":[],"default_left":[0,0,0,0,0,0,0,0,0,0,0,0,0,0,0,0,0,0,0,0,0,0,0,0,0,0,0],"id":27,"left_children":[1,3,5,-1,7,9,-1,-1,11,13,15,-1,17,19,21,23,25,-1,-1,-1,-1,-1,-1,-1,-1,-1,-1],"loss_changes":[1.05038734E2,3.769844E0,4.0582405E1,0E0,3.7270446E0,2.9590164E1,0E0,0E0,2.6934397E0,2.6378677E1,1.0392269E1,0E0,2.1513166E0,8.378361E0,1.9611471E1,1.2636938E1,6.2398605E0,0E0,0E0,0E0,0E0,0E0,0E0,0E0,0E0,0E0,0E0],"parents":[2147483647,0,0,1,1,2,2,4,4,5,5,8,8,9,9,10,10,12,12,13,13,14,14,15,15,16,16],"right_children":[2,4,6,-1,8,10,-1,-1,12,14,16,-1,18,20,22,24,26,-1,-1,-1,-1,-1,-1,-1,-1,-1,-1],"split_conditions":[0E0,1E0,1E0,-1.0254734E-1,1E0,1E0,1.0345979E-1,-9.6573636E-2,0E0,1E0,1E0,-6.3078515E-2,1E0,1E0,1E0,1E0,1E0,-5.7324465E-2,6.6419885E-2,-7.921977E-2,-2.6211238E-2,1.0053843E-1,2.7212708E-3,1.0144497E-2,8.8691406E-2,2.996147E-2,9.587833E-2],"split_indices":[12,7,5,0,29,6,0,0,13,24,25,0,4,23,2,12,0,0,0,0,0,0,0,0,0,0,0],"split_type":[0,0,0,0,0,0,0,0,0,0,0,0,0,0,0,0,0,0,0,0,0,0,0,0,0,0,0],"sum_hessian":[7.2467163E2,1.0027582E2,6.243958E2,8.4903786E1,1.53720255E1,5.768764E2,4.75194E1,6.4578934E0,8.914132E0,3.6463837E2,2.1223805E2,3.2297175E0,5.684415E0,1.4632834E2,2.1831003E2,1.4883192E2,6.340614E1,1.0238804E0,4.660535E0,4.1762222E1,1.0456611E2,2.1892776E1,1.9641727E2,1.2526077E2,2.3571148E1,2.4319395E1,3.9086742E1],"tree_param":{"num_deleted":"0","num_feature":"30","num_nodes":"27","size_leaf_vector":"1"}},{"base_weights":[3.075643E-3,-9.320947E-1,1.4431366E-1,-1.0206657E-1,-4.2980176E-1,7.5591005E-2,1.0273135E-1,-9.483549E-2,-1.2319833E-2,-2.7920147E-2,5.4392225E-1,-6.0263872E-2,3.5697216E-1,-2.0260432E-1,2.651397E-1,5.9777442E-2,8.11997E-1,-7.563972E-3,6.2259525E-2,-1.3210918E-1,1.1710656E-3,5.971805E-2,-6.1951475E-3,-4.90597E-2,5.3209957E-2,2.8940624E-2,1.0294455E-1],"categories":[],"categories_nodes":[],"categories_segments":[],"categories_sizes":[],"default_left":[0,0,0,0,0,0,0,0,0,0,0,0,0,0,0,0,0,0,0,0,0,0,0,0,0,0,0],"id":28,"left_children":[1,3,5,-1,7,9,-1,-1,11,13,15,-1,17,19,21,23,25,-1,-1,-1,-1,-1,-1,-1,-1,-1,-1],"loss_changes":[9.342663E1,3.6903992E0,3.721207E1,0E0,3.3741734E0,2.770632E1,0E0,0E0,2.3248355E0,2.40514E1,1.3377487E1,0E0,8.033617E-1,7.055434E1,1.9097666E1,1.0125159E1,7.259018E0,0E0,0E0,0E0,0E0,0E0,0E0,0E0,0E0,0E0,0E0],"parents":[2147483647,0,0,1,1,2,2,4,4,5,5,8,8,9,9,10,10,12,12,13,13,14,14,15,15,16,16],"right_children":[2,4,6,-1,8,10,-1,-1,12,14,16,-1,18,20,22,24,26,-1,-1,-1,-1,-1,-1,-1,-1,-1,-1],"split_conditions":[0E0,1E0,1E0,-1.0206657E-1,1E0,0E0,1.0273135E-1,-9.483549E-2,0E0,1E0,1E0,-6.0263872E-2,1E0,1E0,1E0,1E0,1E0,-7.563972E-3,6.2259525E-2,-1.3210918E-1,1.1710656E-3,5.971805E-2,-6.1951475E-3,-4.90597E-2,5.3209957E-2,2.8940624E-2,1.0294455E-1],"split_indices":[12,7,5,0,29,14,0,0,13,27,7,0,24,0,8,24,23,0,0,0,0,0,0,0,0,0,0],"split_type":[0,0,0,0,0,0,0,0,0,0,0,0,0,0,0,0,0,0,0,0,0,0,0,0,0,0,0],"sum_hessian":[7.0532184E2,9.181219E1,6.1350964E2,7.717216E1,1.4640033E1,5.702161E2,4.329353E1,5.9624643E0,8.6775675E0,4.677695E2,1.0244662E2,3.096265E0,5.581303E0,2.932692E2,1.745003E2,3.6945606E1,6.5501015E1,2.3953342E0,3.1859686E0,4.632735E1,2.4694185E2,8.61852E1,8.83151E1,1.7045086E1,1.990052E1,1.9931309E1,4.5569706E1],"tree_param":{"num_deleted":"0","num_feature":"30","num_nodes":"27","size_leaf_vector":"1"}},{"base_weights":[2.913782E-3,-9.211681E-1,1.3320136E-1,-1.0161139E-1,-4.1070923E-1,6.943007E-2,1.0203608E-1,-9.3108214E-2,-1.2140663E-2,-4.6858734E-1,1.5653393E-1,-5.7484068E-2,3.3124807E-1,6.2273204E-1,-7.448923E-1,6.5084994E-2,6.801159E-1,-4.233453E-3,6.214876E-2,9.0841345E-2,5.7355757E-3,-9.9492595E-2,5.8834057E-2,-2.2141468E-3,4.872505E-2,9.360794E-3,8.194912E-2],"categories":[],"categories_nodes":[],"categories_segments":[],"categories_sizes":[],"default_left":[0,0,0,0,0,0,0,0,0,0,0,0,0,0,0,0,0,0,0,0,0,0,0,0,0,0,0],"id":29,"left_children":[1,3,5,-1,7,9,-1,-1,11,13,15,-1,17,19,21,23,25,-1,-1,-1,-1,-1,-1,-1,-1,-1,-1],"loss_changes":[8.297716E1,3.710228E0,3.4101566E1,0E0,3.1069643E0,2.6531612E1,0E0,0E0,2.0312667E0,2.4260828E1,2.3257694E1,0E0,7.3661226E-1,2.6111379E0,2.1729946E1,1.5307763E1,5.829853E0,0E0,0E0,0E0,0E0,0E0,0E0,0E0,0E0,0E0,0E0],"parents":[2147483647,0,0,1,1,2,2,4,4,5,5,8,8,9,9,10,10,12,12,13,13,14,14,15,15,16,16],"right_children":[2,4,6,-1,8,10,-1,-1,12,14,16,-1,18,20,22,24,26,-1,-1,-1,-1,-1,-1,-1,-1,-1,-1],"split_conditions":[0E0,1E0,1E0,-1.0161139E-1,1E0,1E0,1.0203608E-1,-9.3108214E-2,0E0,1E0,1E0,-5.7484068E-2,1E0,0E0,1E0,0E0,0E0,-4.233453E-3,6.214876E-2,9.0841345E-2,5.7355757E-3,-9.9492595E-2,5.8834057E-2,-2.2141468E-3,4.872505E-2,9.360794E-3,8.194912E-2],"split_indices":[12,7,5,0,29,26,0,0,13,11,12,0,6,1,25,14,24,0,0,0,0,0,0,0,0,0,0],"split_type":[0,0,0,0,0,0,0,0,0,0,0,0,0,0,0,0,0,0,0,0,0,0,0,0,0,0,0],"sum_hessian":[6.871806E2,8.4164246E1,6.0301636E2,7.012952E1,1.4034733E1,5.635828E2,3.9433514E1,5.507739E0,8.526994E0,7.7918884E1,4.8566394E2,2.9761121E0,5.550882E0,1.5488864E1,6.2430023E1,4.144077E2,7.125622E1,2.8004348E0,2.7504473E0,9.88652E0,5.602344E0,5.2784584E1,9.645437E0,3.4423132E2,7.017641E1,1.4002719E1,5.72535E1],"tree_param":{"num_deleted":"0","num_feature":"30","num_nodes":"27","size_leaf_vector":"1"}},{"base_weights":[2.813214E-3,-9.1013104E-1,1.22805804E-1,-1.0117675E-1,-3.9224735E-1,6.374806E-2,1.0136709E-1,-9.138738E-2,-1.12416195E-2,-1.8172337E-1,2.4588917E-1,7.6784156E-2,-2.3237939E-1,5.1515836E-1,-2.8038752E-1,-4.5164548E-2,4.3346277E-1,5.8911033E-2,-5.827223E-2,-7.302988E-2,8.7288484E-2,-5.154403E-2,-1.9426523E-3,4.289168E-3,-9.2459425E-2,1.7494239E-2,7.098301E-2],"categories":[],"categories_nodes":[],"categories_segments":[],"categories_sizes":[],"default_left":[0,0,0,0,0,0,0,0,0,0,0,0,0,0,0,0,0,0,0,0,0,0,0,0,0,0,0],"id":30,"left_children":[1,3,5,-1,7,9,-1,-1,11,13,15,-1,17,19,21,23,25,-1,-1,-1,-1,-1,-1,-1,-1,-1,-1],"loss_changes":[7.372202E1,3.718071E0,3.122807E1,0E0,2.863282E0,2.5031826E1,0E0,0E0,1.7924014E0,1.655153E1,1.7557487E1,0E0,2.664289E0,1.3979705E1,1.2851473E1,9.858978E0,1.38395E1,0E0,0E0,0E0,0E0,0E0,0E0,0E0,0E0,0E0,0E0],"parents":[2147483647,0,0,1,1,2,2,4,4,5,5,8,8,9,9,10,10,12,12,13,13,14,14,15,15,16,16],"right_children":[2,4,6,-1,8,10,-1,-1,12,14,16,-1,18,20,22,24,26,-1,-1,-1,-1,-1,-1,-1,-1,-1,-1],"split_conditions":[0E0,1E0,1E0,-1.0117675E-1,1E0,0E0,1.0136709E-1,-9.138738E-2,0E0,1E0,1E0,7.6784156E-2,1E0,1E0,1E0,0E0,1E0,5.8911033E-2,-5.827223E-2,-7.302988E-2,8.7288484E-2,-5.154403E-2,-1.9426523E-3,4.289168E-3,-9.2459425E-2,1.7494239E-2,7.098301E-2],"split_indices":[12,7,5,0,29,13,0,0,27,20,7,0,18,29,22,7,24,0,0,0,0,0,0,0,0,0,0],"split_type":[0,0,0,0,0,0,0,0,0,0,0,0,0,0,0,0,0,0,0,0,0,0,0,0,0,0,0],"sum_hessian":[6.7095416E2,7.717741E1,5.9377673E2,6.3718735E1,1.345867E1,5.578659E2,3.591081E1,5.0906243E0,8.368045E0,2.3762338E2,3.2024252E2,1.3034991E0,7.064546E0,2.8946688E1,2.086767E2,1.2580028E2,1.9444226E2,1.9083326E0,5.1562133E0,6.226626E0,2.2720062E1,1.092752E2,9.94015E1,1.1521516E2,1.0585125E1,1.0130873E2,9.313353E1],"tree_param":{"num_deleted":"0","num_feature":"30","num_nodes":"27","size_leaf_vector":"1"}},{"base_weights":[2.6107328E-3,-8.983001E-1,1.133786E-1,-1.0075797E-1,-3.7007308E-1,5.8509517E-2,1.0071796E-1,-8.966974E-2,-2.09546E-3,-9.443323E-2,3.276699E-1,7.4086E-2,-2.133475E-1,-2.7193746E-1,2.060029E-1,1.886151E-1,6.573569E-1,-8.2348235E-2,2.6208369E-2,-1.4054818E-1,-5.248356E-3,-9.904882E-3,4.6275374E-2,-2.261806E-2,3.761283E-2,1.5051872E-2,8.598855E-2],"categories":[],"categories_nodes":[],"categories_segments":[],"categories_sizes":[],"default_left":[0,0,0,0,0,0,0,0,0,0,0,0,0,0,0,0,0,0,0,0,0,0,0,0,0,0,0],"id":31,"left_children":[1,3,5,-1,7,9,-1,-1,11,13,15,-1,17,19,21,23,25,-1,-1,-1,-1,-1,-1,-1,-1,-1,-1],"loss_changes":[6.541289E1,3.7699852E0,2.8567022E1,0E0,2.6884613E0,2.2713636E1,0E0,0E0,1.598063E0,1.8834763E1,9.039043E0,0E0,2.5132475E0,5.5097225E1,1.033337E1,1.1128315E1,5.9156513E0,0E0,0E0,0E0,0E0,0E0,0E0,0E0,0E0,0E0,0E0],"parents":[2147483647,0,0,1,1,2,2,4,4,5,5,8,8,9,9,10,10,12,12,13,13,14,14,15,15,16,16],"right_children":[2,4,6,-1,8,10,-1,-1,12,14,16,-1,18,20,22,24,26,-1,-1,-1,-1,-1,-1,-1,-1,-1,-1],"split_conditions":[0E0,1E0,1E0,-1.0075797E-1,1E0,1E0,1.0071796E-1,-8.966974E-2,0E0,1E0,1E0,7.4086E-2,1E0,1E0,1E0,1E0,1E0,-8.2348235E-2,2.6208369E-2,-1.4054818E-1,-5.248356E-3,-9.904882E-3,4.6275374E-2,-2.261806E-2,3.761283E-2,1.5051872E-2,8.598855E-2],"split_indices":[12,7,5,0,29,6,0,0,27,27,25,0,27,0,7,23,7,0,0,0,0,0,0,0,0,0,0],"split_type":[0,0,0,0,0,0,0,0,0,0,0,0,0,0,0,0,0,0,0,0,0,0,0,0,0,0,0],"sum_hessian":[6.534719E2,7.076966E1,5.827023E2,5.788661E1,1.2883051E1,5.5000385E2,3.2698437E1,4.7081885E0,8.174863E0,3.511321E2,1.9887172E2,1.2548093E0,6.920053E0,2.2078334E2,1.3034875E2,1.4098108E2,5.7890633E1,2.7100682E0,4.2099853E0,3.493407E1,1.8584927E2,5.9851723E1,7.049703E1,4.382659E1,9.715449E1,1.7025827E1,4.0864803E1],"tree_param":{"num_deleted":"0","num_feature":"30","num_nodes":"27","size_leaf_vector":"1"}},{"base_weights":[2.335339E-3,-8.876485E-1,1.0432513E-1,-1.0035069E-1,-3.544514E-1,5.353421E-2,1.0008266E-1,-8.795297E-2,-5.363336E-4,-4.439929E-1,1.3372418E-1,-3.1855884E-1,4.5959076E-1,5.8325326E-1,-7.003037E-1,5.074973E-2,6.3451445E-1,2.2621535E-2,-8.2800835E-2,6.347499E-2,1.5283375E-2,8.731141E-2,4.129416E-3,-9.168717E-2,5.2770805E-2,-2.682039E-3,4.3893736E-2,-5.639274E-2,7.027053E-2],"categories":[],"categories_nodes":[],"categories_segments":[],"categories_sizes":[],"default_left":[0,0,0,0,0,0,0,0,0,0,0,0,0,0,0,0,0,0,0,0,0,0,0,0,0,0,0,0,0],"id":32,"left_children":[1,3,5,-1,7,9,-1,-1,11,13,15,17,19,21,23,25,27,-1,-1,-1,-1,-1,-1,-1,-1,-1,-1,-1,-1],"loss_changes":[5.8171608E1,3.7147903E0,2.6126795E1,0E0,2.472591E0,2.181066E1,0E0,0E0,1.4561117E0,2.0394215E1,1.9509403E1,1.8200514E0,1.2152928E-1,2.4308057E0,1.676076E1,1.2192764E1,5.8518963E0,0E0,0E0,0E0,0E0,0E0,0E0,0E0,0E0,0E0,0E0,0E0,0E0],"parents":[2147483647,0,0,1,1,2,2,4,4,5,5,8,8,9,9,10,10,11,11,12,12,13,13,14,14,15,15,16,16],"right_children":[2,4,6,-1,8,10,-1,-1,12,14,16,18,20,22,24,26,28,-1,-1,-1,-1,-1,-1,-1,-1,-1,-1,-1,-1],"split_conditions":[0E0,1E0,1E0,-1.0035069E-1,1E0,1E0,1.0008266E-1,-8.795297E-2,1E0,1E0,1E0,0E0,0E0,0E0,1E0,0E0,1E0,2.2621535E-2,-8.2800835E-2,6.347499E-2,1.5283375E-2,8.731141E-2,4.129416E-3,-9.168717E-2,5.2770805E-2,-2.682039E-3,4.3893736E-2,-5.639274E-2,7.027053E-2],"split_indices":[12,7,5,0,29,26,0,0,6,11,12,6,24,1,25,14,19,0,0,0,0,0,0,0,0,0,0,0,0],"split_type":[0,0,0,0,0,0,0,0,0,0,0,0,0,0,0,0,0,0,0,0,0,0,0,0,0,0,0,0,0],"sum_hessian":[6.3885315E2,6.4891685E1,5.739615E2,5.2583714E1,1.2307975E1,5.441903E2,2.9771166E1,4.35767E0,7.950305E0,7.490656E1,4.6928375E2,4.8830185E0,3.0672865E0,1.4703215E1,6.020335E1,4.0352603E2,6.57577E1,2.6283658E0,2.2546527E0,1.271837E0,1.7954495E0,9.181538E0,5.5216775E0,5.1393185E1,8.810164E0,3.3709625E2,6.642981E1,3.1487699E0,6.2608925E1],"tree_param":{"num_deleted":"0","num_feature":"30","num_nodes":"29","size_leaf_vector":"1"}},{"base_weights":[2.1771342E-3,-8.75955E-1,9.5921814E-2,-9.995081E-2,-3.3788797E-1,4.90105E-2,9.945555E-2,-8.623566E-2,1.102229E-3,-1.7137781E-1,2.1570215E-1,7.052009E-2,-2.0157544E-1,4.7093922E-1,-2.594667E-1,-4.305569E-2,3.9041495E-1,5.468431E-2,-5.4088514E-2,-6.816197E-2,8.154441E-2,-4.7538295E-2,-2.0452798E-3,3.8664546E-3,-8.731687E-2,1.4907508E-2,6.676231E-2],"categories":[],"categories_nodes":[],"categories_segments":[],"categories_sizes":[],"default_left":[0,0,0,0,0,0,0,0,0,0,0,0,0,0,0,0,0,0,0,0,0,0,0,0,0,0,0],"id":33,"left_children":[1,3,5,-1,7,9,-1,-1,11,13,15,-1,17,19,21,23,25,-1,-1,-1,-1,-1,-1,-1,-1,-1,-1],"loss_changes":[5.170928E1,3.690277E0,2.3876415E1,0E0,2.2811792E0,1.989076E1,0E0,0E0,1.3963777E0,1.3321878E1,1.3947472E1,0E0,2.2263222E0,1.1868291E1,1.0610883E1,8.52016E0,1.221327E1,0E0,0E0,0E0,0E0,0E0,0E0,0E0,0E0,0E0,0E0],"parents":[2147483647,0,0,1,1,2,2,4,4,5,5,8,8,9,9,10,10,12,12,13,13,14,14,15,15,16,16],"right_children":[2,4,6,-1,8,10,-1,-1,12,14,16,-1,18,20,22,24,26,-1,-1,-1,-1,-1,-1,-1,-1,-1,-1],"split_conditions":[0E0,1E0,1E0,-9.995081E-2,1E0,0E0,9.945555E-2,-8.623566E-2,0E0,1E0,1E0,7.052009E-2,1E0,1E0,1E0,0E0,1E0,5.468431E-2,-5.4088514E-2,-6.816197E-2,8.154441E-2,-4.7538295E-2,-2.0452798E-3,3.8664546E-3,-8.731687E-2,1.4907508E-2,6.676231E-2],"split_indices":[12,7,5,0,29,13,0,0,27,20,7,0,18,29,22,7,24,0,0,0,0,0,0,0,0,0,0],"split_type":[0,0,0,0,0,0,0,0,0,0,0,0,0,0,0,0,0,0,0,0,0,0,0,0,0,0,0],"sum_hessian":[6.2612726E2,5.9589745E1,5.6653754E2,4.7764317E1,1.1825426E1,5.394321E2,2.7105402E1,4.036484E0,7.7889423E0,2.322883E2,3.0714383E2,1.1867553E0,6.602187E0,2.7490425E1,2.0479788E2,1.2409979E2,1.8304404E2,1.8687136E0,4.7334733E0,6.100922E0,2.1389503E1,1.07078354E2,9.771953E1,1.138457E2,1.0254085E1,9.867471E1,8.436932E1],"tree_param":{"num_deleted":"0","num_feature":"30","num_nodes":"27","size_leaf_vector":"1"}},{"base_weights":[2.0098803E-3,-8.6309516E-1,8.839776E-2,-9.955443E-2,-3.1779838E-1,4.4923514E-2,9.883126E-2,-8.4517114E-2,9.134289E-3,-4.132107E-1,1.1830974E-1,6.819335E-2,-1.8464477E-1,5.483571E-1,-6.516307E-1,4.3438923E-2,5.8897084E-1,-7.8686945E-2,2.4933858E-2,8.304017E-2,4.337329E-3,-8.456303E-2,4.8389427E-2,-8.5721705E-3,2.6873112E-2,-5.5737335E-2,6.582819E-2],"categories":[],"categories_nodes":[],"categories_segments":[],"categories_sizes":[],"default_left":[0,0,0,0,0,0,0,0,0,0,0,0,0,0,0,0,0,0,0,0,0,0,0,0,0,0,0],"id":34,"left_children":[1,3,5,-1,7,9,-1,-1,11,13,15,-1,17,19,21,23,25,-1,-1,-1,-1,-1,-1,-1,-1,-1,-1],"loss_changes":[4.589004E1,3.7101135E0,2.1796833E1,0E0,2.1394496E0,1.798858E1,0E0,0E0,1.2499644E0,1.7298172E1,1.6208761E1,0E0,2.1513171E0,2.1324196E0,1.3553928E1,1.1620324E1,5.384281E0,0E0,0E0,0E0,0E0,0E0,0E0,0E0,0E0,0E0,0E0],"parents":[2147483647,0,0,1,1,2,2,4,4,5,5,8,8,9,9,10,10,12,12,13,13,14,14,15,15,16,16],"right_children":[2,4,6,-1,8,10,-1,-1,12,14,16,-1,18,20,22,24,26,-1,-1,-1,-1,-1,-1,-1,-1,-1,-1],"split_conditions":[0E0,1E0,1E0,-9.955443E-2,1E0,1E0,9.883126E-2,-8.4517114E-2,0E0,1E0,1E0,6.819335E-2,1E0,0E0,1E0,1E0,1E0,-7.8686945E-2,2.4933858E-2,8.304017E-2,4.337329E-3,-8.456303E-2,4.8389427E-2,-8.5721705E-3,2.6873112E-2,-5.5737335E-2,6.582819E-2],"split_indices":[12,7,5,0,29,26,0,0,27,11,12,0,27,1,25,6,19,0,0,0,0,0,0,0,0,0,0],"split_type":[0,0,0,0,0,0,0,0,0,0,0,0,0,0,0,0,0,0,0,0,0,0,0,0,0,0,0],"sum_hessian":[6.120193E2,5.475011E1,5.5726917E2,4.3386192E1,1.1363918E1,5.3259E2,2.4679129E1,3.7422187E0,7.6217E0,7.289456E1,4.5969547E2,1.1410065E0,6.4806933E0,1.4224797E1,5.866976E1,3.9754755E2,6.2147923E1,2.3736806E0,4.1070127E0,8.713631E0,5.5111666E0,5.032692E1,8.342845E0,2.5307721E2,1.4447034E2,3.1419044E0,5.9006016E1],"tree_param":{"num_deleted":"0","num_feature":"30","num_nodes":"27","size_leaf_vector":"1"}},{"base_weights":[1.8258544E-3,-8.515776E-1,8.1184044E-2,-9.9157795E-2,-3.0446327E-1,-1.5934223E-1,2.3278156E-1,-8.279737E-2,9.615943E-3,-2.7327042E-2,-5.292334E-1,1.2581645E-1,7.9677445E-1,-2.877243E-1,4.2690963E-1,-3.3406606E-1,1.5114903E-1,-8.127085E-1,1.0982181E-1,8.592582E-1,3.755812E-2,3.9588386E-1,9.692021E-2,2.2492124E-2,-7.9657294E-2,5.9485085E-2,1.3308497E-2,-8.377935E-2,-7.9294964E-4,5.5113476E-2,-9.026553E-3,-1.01004995E-1,1.7293913E-2,-1.08256355E-1,4.2057298E-2,9.272414E-2,2.5067562E-2,-3.0003715E-2,3.5929304E-2,-6.2146306E-2,7.5348124E-2],"categories":[],"categories_nodes":[],"categories_segments":[],"categories_sizes":[],"default_left":[0,0,0,0,0,0,0,0,0,0,0,0,0,0,0,0,0,0,0,0,0,0,0,0,0,0,0,0,0,0,0,0,0,0,0,0,0,0,0,0,0],"id":35,"left_children":[1,3,5,-1,7,9,11,-1,13,15,17,19,21,23,25,27,29,31,33,35,37,39,-1,-1,-1,-1,-1,-1,-1,-1,-1,-1,-1,-1,-1,-1,-1,-1,-1,-1,-1],"loss_changes":[4.0841732E1,3.6280556E0,2.0154858E1,0E0,1.9641199E0,1.0430307E1,2.0340721E1,0E0,1.1681188E0,8.738034E0,1.0271299E1,1.8481386E1,3.3372612E0,1.6182268E0,1.1366546E-1,9.633869E0,9.803255E0,7.7710342E0,7.1812124E0,1.0366402E0,2.7949331E1,6.9730186E0,0E0,0E0,0E0,0E0,0E0,0E0,0E0,0E0,0E0,0E0,0E0,0E0,0E0,0E0,0E0,0E0,0E0,0E0,0E0],"parents":[2147483647,0,0,1,1,2,2,4,4,5,5,6,6,8,8,9,9,10,10,11,11,12,12,13,13,14,14,15,15,16,16,17,17,18,18,19,19,20,20,21,21],"right_children":[2,4,6,-1,8,10,12,-1,14,16,18,20,22,24,26,28,30,32,34,36,38,40,-1,-1,-1,-1,-1,-1,-1,-1,-1,-1,-1,-1,-1,-1,-1,-1,-1,-1,-1],"split_conditions":[0E0,1E0,1E0,-9.9157795E-2,1E0,1E0,1E0,-8.279737E-2,1E0,0E0,1E0,0E0,1E0,0E0,0E0,1E0,1E0,1E0,1E0,1E0,1E0,1E0,9.692021E-2,2.2492124E-2,-7.9657294E-2,5.9485085E-2,1.3308497E-2,-8.377935E-2,-7.9294964E-4,5.5113476E-2,-9.026553E-3,-1.01004995E-1,1.7293913E-2,-1.08256355E-1,4.2057298E-2,9.272414E-2,2.5067562E-2,-3.0003715E-2,3.5929304E-2,-6.2146306E-2,7.5348124E-2],"split_indices":[12,7,7,0,29,25,12,0,6,6,6,24,0,6,24,23,22,22,29,17,24,27,0,0,0,0,0,0,0,0,0,0,0,0,0,0,0,0,0,0,0],"split_type":[0,0,0,0,0,0,0,0,0,0,0,0,0,0,0,0,0,0,0,0,0,0,0,0,0,0,0,0,0,0,0,0,0,0,0,0,0,0,0,0,0],"sum_hessian":[6.0103564E2,5.0307476E1,5.507282E2,3.9410423E1,1.0897056E1,2.1289522E2,3.3783298E2,3.4726365E0,7.424419E0,1.5768935E2,5.5205883E1,2.8500323E2,5.2829735E1,4.516624E0,2.9077952E0,5.7682014E1,1.00007324E2,3.8053986E1,1.7151897E1,2.9673735E1,2.553295E2,1.688001E1,3.5949726E1,2.527871E0,1.988753E0,1.198347E0,1.7094481E0,2.2052479E1,3.5629536E1,3.715855E1,6.2848774E1,3.1685345E1,6.368639E0,3.0324326E0,1.4119465E1,2.622104E1,3.4526947E0,1.24626656E2,1.3070285E2,4.198265E0,1.2681745E1],"tree_param":{"num_deleted":"0","num_feature":"30","num_nodes":"41","size_leaf_vector":"1"}},{"base_weights":[1.5150015E-3,-8.3884215E-1,7.492588E-2,-9.875733E-2,-2.9032934E-1,3.5683557E-2,9.800385E-2,-8.1077E-2,1.02509735E-2,-4.4046078E-2,4.3367293E-1,-3.524715E-1,3.6386028E-1,-3.012545E-1,1.1720387E-1,4.2823583E-2,7.7255255E-1,4.384502E-2,-8.179994E-2,-1.1724548E-2,5.4083228E-2,-1.4691107E-1,-2.1471044E-2,5.6055915E-2,2.5380661E-3,-4.9955558E-2,4.1752312E-2,1.0607348E-1,4.2494055E-2],"categories":[],"categories_nodes":[],"categories_segments":[],"categories_sizes":[],"default_left":[0,0,0,0,0,0,0,0,0,0,0,0,0,0,0,0,0,0,0,0,0,0,0,0,0,0,0,0,0],"id":36,"left_children":[1,3,5,-1,7,9,-1,-1,11,13,15,17,19,21,23,25,27,-1,-1,-1,-1,-1,-1,-1,-1,-1,-1,-1,-1],"loss_changes":[3.6328335E1,3.572815E0,1.9199984E1,0E0,1.8085701E0,1.6521992E1,0E0,0E0,1.1905717E0,1.804314E1,1.1475767E1,2.0510576E0,4.6238244E-1,1.662315E1,1.0879686E1,8.624357E0,4.2055264E0,0E0,0E0,0E0,0E0,0E0,0E0,0E0,0E0,0E0,0E0,0E0,0E0],"parents":[2147483647,0,0,1,1,2,2,4,4,5,5,8,8,9,9,10,10,11,11,12,12,13,13,14,14,15,15,16,16],"right_children":[2,4,6,-1,8,10,-1,-1,12,14,16,18,20,22,24,26,28,-1,-1,-1,-1,-1,-1,-1,-1,-1,-1,-1,-1],"split_conditions":[0E0,1E0,1E0,-9.875733E-2,1E0,0E0,9.800385E-2,-8.1077E-2,1E0,1E0,1E0,0E0,1E0,1E0,1E0,1E0,1E0,4.384502E-2,-8.179994E-2,-1.1724548E-2,5.4083228E-2,-1.4691107E-1,-2.1471044E-2,5.6055915E-2,2.5380661E-3,-4.9955558E-2,4.1752312E-2,1.0607348E-1,4.2494055E-2],"split_indices":[12,7,5,0,29,14,0,0,24,29,24,24,3,18,20,7,22,0,0,0,0,0,0,0,0,0,0,0,0],"split_type":[0,0,0,0,0,0,0,0,0,0,0,0,0,0,0,0,0,0,0,0,0,0,0,0,0,0,0,0,0],"sum_hessian":[5.868535E2,4.6309345E1,5.405442E2,3.5801258E1,1.0508088E1,5.190783E2,2.1465883E1,3.2256598E0,7.2824287E0,4.3318686E2,8.589146E1,3.5964792E0,3.6859493E0,1.6659088E2,2.6659598E2,4.0410297E1,4.5481155E1,1.3540845E0,2.2423947E0,1.0819943E0,2.603955E0,1.0391334E1,1.5619955E2,4.4865334E1,2.2173064E2,1.6374674E1,2.4035625E1,2.3744589E1,2.1736567E1],"tree_param":{"num_deleted":"0","num_feature":"30","num_nodes":"29","size_leaf_vector":"1"}},{"base_weights":[1.3997717E-3,-8.267359E-1,6.885872E-2,-9.8349534E-2,-2.7895036E-1,3.269281E-2,9.7355865E-2,-7.935715E-2,9.441535E-3,-1.6225846E-1,1.8298048E-1,-3.374556E-1,3.3886677E-1,-3.354806E-1,9.9705614E-2,9.880612E-2,6.371225E-1,4.1634854E-2,-7.953281E-2,-1.1129833E-2,5.0586134E-2,4.273014E-2,-4.5672446E-2,-4.562894E-2,2.3265727E-2,6.2642895E-2,3.0356753E-3,3.248375E-2,8.520945E-2],"categories":[],"categories_nodes":[],"categories_segments":[],"categories_sizes":[],"default_left":[0,0,0,0,0,0,0,0,0,0,0,0,0,0,0,0,0,0,0,0,0,0,0,0,0,0,0,0,0],"id":37,"left_children":[1,3,5,-1,7,9,-1,-1,11,13,15,17,19,21,23,25,27,-1,-1,-1,-1,-1,-1,-1,-1,-1,-1,-1,-1],"loss_changes":[3.2358536E1,3.4721184E0,1.7491888E1,0E0,1.6553632E0,1.5148593E1,0E0,0E0,1.0404438E0,1.0250912E1,1.1094076E1,1.86646E0,4.0628713E-1,1.2751359E1,6.788218E0,8.916235E0,2.7746315E0,0E0,0E0,0E0,0E0,0E0,0E0,0E0,0E0,0E0,0E0,0E0,0E0],"parents":[2147483647,0,0,1,1,2,2,4,4,5,5,8,8,9,9,10,10,11,11,12,12,13,13,14,14,15,15,16,16],"right_children":[2,4,6,-1,8,10,-1,-1,12,14,16,18,20,22,24,26,28,-1,-1,-1,-1,-1,-1,-1,-1,-1,-1,-1,-1],"split_conditions":[0E0,1E0,1E0,-9.8349534E-2,1E0,0E0,9.7355865E-2,-7.935715E-2,1E0,1E0,1E0,0E0,1E0,1E0,1E0,1E0,1E0,4.1634854E-2,-7.953281E-2,-1.1129833E-2,5.0586134E-2,4.273014E-2,-4.5672446E-2,-4.562894E-2,2.3265727E-2,6.2642895E-2,3.0356753E-3,3.248375E-2,8.520945E-2],"split_indices":[12,7,5,0,29,13,0,0,24,27,12,24,3,15,15,11,7,0,0,0,0,0,0,0,0,0,0,0,0],"split_type":[0,0,0,0,0,0,0,0,0,0,0,0,0,0,0,0,0,0,0,0,0,0,0,0,0,0,0,0,0],"sum_hessian":[5.772066E2,4.262919E1,5.3457745E2,3.252588E1,1.0103311E1,5.1502515E2,1.9552296E1,2.9993699E0,7.1039405E0,2.2416345E2,2.908617E2,3.4483361E0,3.6556044E0,1.3476819E2,8.939527E1,2.46408E2,4.4453686E1,1.3373388E0,2.1109972E0,1.0794004E0,2.576204E0,1.8137203E1,1.1663098E2,1.6782013E1,7.261326E1,2.7359928E1,2.1904807E2,1.9148363E1,2.530532E1],"tree_param":{"num_deleted":"0","num_feature":"30","num_nodes":"29","size_leaf_vector":"1"}},{"base_weights":[1.4864249E-3,-8.141758E-1,6.345005E-2,-9.793103E-2,-2.6814657E-1,3.0158103E-2,9.6694805E-2,-5.2044994E-1,2.4469325E-1,-4.0069178E-1,9.851767E-2,-1.2412885E-1,-8.445882E-2,5.442567E-4,4.790788E-2,4.7831017E-1,-6.1132884E-1,3.837888E-2,5.1268375E-1,-5.86915E-2,2.338737E-2,1.9146383E-2,-1.9636383E-2,7.703303E-2,-5.4663135E-4,-7.813281E-2,4.2949185E-2,-7.481219E-3,2.3649132E-2,-5.6665014E-3,6.694067E-2],"categories":[],"categories_nodes":[],"categories_segments":[],"categories_sizes":[],"default_left":[0,0,0,0,0,0,0,0,0,0,0,0,0,0,0,0,0,0,0,0,0,0,0,0,0,0,0,0,0,0,0],"id":38,"left_children":[1,3,5,-1,7,9,-1,11,13,15,17,19,-1,21,-1,23,25,27,29,-1,-1,-1,-1,-1,-1,-1,-1,-1,-1,-1,-1],"loss_changes":[2.8838295E1,3.369896E0,1.5921239E1,0E0,1.5159161E0,1.513301E1,0E0,8.6025786E-1,2.4116492E-1,1.3321862E1,1.1016675E1,8.9147735E-1,0E0,1.5291652E-1,0E0,2.0052838E0,1.04578285E1,8.718283E0,5.043789E0,0E0,0E0,0E0,0E0,0E0,0E0,0E0,0E0,0E0,0E0,0E0,0E0],"parents":[2147483647,0,0,1,1,2,2,4,4,5,5,7,7,8,8,9,9,10,10,11,11,13,13,15,15,16,16,17,17,18,18],"right_children":[2,4,6,-1,8,10,-1,12,14,16,18,20,-1,22,-1,24,26,28,30,-1,-1,-1,-1,-1,-1,-1,-1,-1,-1,-1,-1],"split_conditions":[0E0,1E0,1E0,-9.793103E-2,1E0,1E0,9.6694805E-2,0E0,1E0,1E0,1E0,1E0,-8.445882E-2,1E0,4.790788E-2,0E0,1E0,1E0,0E0,-5.86915E-2,2.338737E-2,1.9146383E-2,-1.9636383E-2,7.703303E-2,-5.4663135E-4,-7.813281E-2,4.2949185E-2,-7.481219E-3,2.3649132E-2,-5.6665014E-3,6.694067E-2],"split_indices":[12,7,5,0,6,26,0,6,24,11,12,24,0,0,0,1,25,6,24,0,0,0,0,0,0,0,0,0,0,0,0],"split_type":[0,0,0,0,0,0,0,0,0,0,0,0,0,0,0,0,0,0,0,0,0,0,0,0,0,0,0,0,0,0,0],"sum_hessian":[5.685655E2,3.928573E1,5.292798E2,2.9554201E1,9.731528E0,5.1146674E2,1.7813066E1,6.512644E0,3.2188847E0,6.937231E1,4.4209442E2,3.5522673E0,2.9603765E0,2.0675414E0,1.1513435E0,1.316464E1,5.620767E1,3.8699384E2,5.510059E1,1.2704954E0,2.281772E0,1.0637711E0,1.0037701E0,7.839929E0,5.3247113E0,4.8530415E1,7.677253E0,2.4667757E2,1.4031625E2,1.2031297E1,4.3069294E1],"tree_param":{"num_deleted":"0","num_feature":"30","num_nodes":"31","size_leaf_vector":"1"}},{"base_weights":[1.4401086E-3,-2.5163427E-1,1.8172991E-1,-9.749847E-2,-1.5311027E-1,8.493819E-2,6.932193E-1,-2.6734076E-2,-5.153568E-1,-7.9284415E-2,4.0559548E-1,1.1844844E-1,9.730781E-2,5.4904655E-2,-6.604268E-1,-7.803628E-1,6.481035E-2,-1.0546311E0,1.0255608E-1,-1.5861171E-1,5.4557526E-1,-5.880885E-1,9.3319274E-2,-2.976501E-2,2.240093E-2,-1.1797329E-1,2.9873574E-2,-9.735333E-2,1.4350106E-2,-1.0339989E-1,3.4449037E-2,6.2392887E-2,-1.5145122E-1,-9.782597E-2,3.4352094E-2,3.380554E-2,-1.1137684E-1,8.899932E-2,3.9492432E-2,7.34113E-2,-1.0172339E-1],"categories":[],"categories_nodes":[],"categories_segments":[],"categories_sizes":[],"default_left":[0,0,0,0,0,0,0,0,0,0,0,0,0,0,0,0,0,0,0,0,0,0,0,0,0,0,0,0,0,0,0,0,0,0,0,0,0,0,0,0,0],"id":39,"left_children":[1,3,5,-1,7,9,11,13,15,17,19,21,-1,23,25,27,29,31,33,35,37,39,-1,-1,-1,-1,-1,-1,-1,-1,-1,-1,-1,-1,-1,-1,-1,-1,-1,-1,-1],"loss_changes":[2.5657574E1,1.6523561E1,1.6198858E1,0E0,9.46662E0,1.463308E1,8.267565E0,8.033422E0,8.277046E0,3.277743E1,7.516117E0,1.1027908E1,0E0,8.285935E0,9.178164E0,6.7082157E0,5.7957797E0,2.3357277E1,4.1007782E1,9.615165E0,3.5710354E0,6.626828E0,0E0,0E0,0E0,0E0,0E0,0E0,0E0,0E0,0E0,0E0,0E0,0E0,0E0,0E0,0E0,0E0,0E0,0E0,0E0],"parents":[2147483647,0,0,1,1,2,2,4,4,5,5,6,6,7,7,8,8,9,9,10,10,11,11,13,13,14,14,15,15,16,16,17,17,18,18,19,19,20,20,21,21],"right_children":[2,4,6,-1,8,10,12,14,16,18,20,22,-1,24,26,28,30,32,34,36,38,40,-1,-1,-1,-1,-1,-1,-1,-1,-1,-1,-1,-1,-1,-1,-1,-1,-1,-1,-1],"split_conditions":[1E0,0E0,0E0,-9.749847E-2,1E0,1E0,1E0,0E0,1E0,1E0,1E0,1E0,9.730781E-2,1E0,1E0,1E0,1E0,1E0,1E0,1E0,1E0,0E0,9.3319274E-2,-2.976501E-2,2.240093E-2,-1.1797329E-1,2.9873574E-2,-9.735333E-2,1.4350106E-2,-1.0339989E-1,3.4449037E-2,6.2392887E-2,-1.5145122E-1,-9.782597E-2,3.4352094E-2,3.380554E-2,-1.1137684E-1,8.899932E-2,3.9492432E-2,7.34113E-2,-1.0172339E-1],"split_indices":[7,12,14,0,25,27,23,7,6,0,15,24,0,23,6,22,29,15,23,20,2,24,0,0,0,0,0,0,0,0,0,0,0,0,0,0,0,0,0,0,0],"split_type":[0,0,0,0,0,0,0,0,0,0,0,0,0,0,0,0,0,0,0,0,0,0,0,0,0,0,0,0,0,0,0,0,0,0,0,0,0,0,0,0,0],"sum_hessian":[5.6033417E2,2.3294771E2,3.2738647E2,2.6858706E1,2.0608899E2,2.7627216E2,5.111431E1,1.5358272E2,5.250628E1,1.8320012E2,9.307204E1,1.7204054E1,3.391026E1,1.3686388E2,1.6718836E1,3.5805946E1,1.6700335E1,2.8033848E1,1.5516628E2,1.8474596E1,7.459744E1,9.362871E0,7.8411827E0,4.4120308E1,9.274357E1,1.0697225E1,6.0216117E0,2.95695E1,6.236446E0,2.8411033E0,1.3859231E1,5.9520864E0,2.208176E1,2.7729507E1,1.2743677E2,1.2579513E1,5.895084E0,2.1206808E1,5.3390636E1,2.1201196E0,7.2427516E0],"tree_param":{"num_deleted":"0","num_feature":"30","num_nodes":"41","size_leaf_vector":"1"}},{"base_weights":[1.1088096E-3,-7.899395E-1,5.429642E-2,-9.70486E-2,-2.6820117E-1,2.418499E-2,9.574067E-2,-7.613547E-2,-2.730689E-4,-3.7700206E-1,8.739273E-2,4.7850613E-2,-2.236798E-1,4.1941962E-1,-5.6267583E-1,-6.750762E-2,2.2612932E-1,4.2430586E-3,-6.80635E-2,7.184209E-2,-4.873601E-3,-7.18326E-2,4.0498298E-2,-5.266117E-2,1.1315275E-2,1.1410645E-2,8.334101E-2],"categories":[],"categories_nodes":[],"categories_segments":[],"categories_sizes":[],"default_left":[0,0,0,0,0,0,0,0,0,0,0,0,0,0,0,0,0,0,0,0,0,0,0,0,0,0,0],"id":40,"left_children":[1,3,5,-1,7,9,-1,-1,11,13,15,-1,17,19,21,23,25,-1,-1,-1,-1,-1,-1,-1,-1,-1,-1],"loss_changes":[2.318893E1,3.0105362E0,1.40199175E1,0E0,1.3618636E0,1.2731487E1,0E0,0E0,9.284996E-1,1.0342724E1,9.329643E0,0E0,7.485071E-1,1.9239559E0,8.70315E0,1.710843E1,1.5474764E1,0E0,0E0,0E0,0E0,0E0,0E0,0E0,0E0,0E0,0E0],"parents":[2147483647,0,0,1,1,2,2,4,4,5,5,8,8,9,9,10,10,12,12,13,13,14,14,15,15,16,16],"right_children":[2,4,6,-1,8,10,-1,-1,12,14,16,-1,18,20,22,24,26,-1,-1,-1,-1,-1,-1,-1,-1,-1,-1],"split_conditions":[0E0,1E0,1E0,-9.70486E-2,1E0,1E0,9.574067E-2,-7.613547E-2,1E0,1E0,1E0,4.7850613E-2,1E0,0E0,1E0,1E0,0E0,4.2430586E-3,-6.80635E-2,7.184209E-2,-4.873601E-3,-7.18326E-2,4.0498298E-2,-5.266117E-2,1.1315275E-2,1.1410645E-2,8.334101E-2],"split_indices":[12,7,5,0,29,26,0,0,18,11,24,0,13,1,25,23,14,0,0,0,0,0,0,0,0,0,0],"split_type":[0,0,0,0,0,0,0,0,0,0,0,0,0,0,0,0,0,0,0,0,0,0,0,0,0,0,0],"sum_hessian":[5.491273E2,3.372282E1,5.154045E2,2.4414225E1,9.308596E0,4.9976804E2,1.5636445E1,2.6286373E0,6.6799583E0,6.734661E1,4.3242142E2,1.7619952E0,4.917963E0,1.2494461E1,5.485215E1,2.0455159E2,2.2786983E2,3.6812892E0,1.2366741E0,7.29849E0,5.195971E0,4.7473583E1,7.3785677E0,5.7221706E1,1.4732988E2,1.9338475E2,3.448509E1],"tree_param":{"num_deleted":"0","num_feature":"30","num_nodes":"27","size_leaf_vector":"1"}},{"base_weights":[1.0646093E-3,-2.322131E-1,1.6642354E-1,-9.657821E-2,-1.4744821E-1,7.604245E-1,8.785553E-2,-2.8549908E-2,-4.9407268E-1,6.694998E-2,8.700658E-1,-2.0507431E-1,3.467603E-1,4.557097E-2,-6.256514E-1,-7.463784E-1,4.6212766E-2,7.626746E-2,-1.2602063E-1,5.371929E-1,9.8257825E-2,-7.431924E-1,5.7614632E-2,-8.2419366E-2,5.833372E-1,-1.6355433E-2,3.2437485E-2,-1.148422E-1,2.6740972E-2,-9.345062E-2,1.2220829E-2,-9.961112E-2,3.0567283E-2,8.40745E-3,6.9631726E-2,-8.965384E-2,6.972637E-2,-4.312208E-3,9.823065E-2,-4.107048E-2,3.3317745E-2,3.9285358E-2,9.6039265E-2],"categories":[],"categories_nodes":[],"categories_segments":[],"categories_sizes":[],"default_left":[0,0,0,0,0,0,0,0,0,0,0,0,0,0,0,0,0,0,0,0,0,0,0,0,0,0,0,0,0,0,0,0,0,0,0,0,0,0,0,0,0,0,0],"id":41,"left_children":[1,3,5,-1,7,9,11,13,15,17,19,21,23,25,27,29,31,-1,-1,33,-1,35,37,39,41,-1,-1,-1,-1,-1,-1,-1,-1,-1,-1,-1,-1,-1,-1,-1,-1,-1,-1],"loss_changes":[2.0987852E1,1.3891492E1,1.4792239E1,0E0,8.372622E0,2.7597656E0,2.1482983E1,6.781501E0,7.1111813E0,6.6333427E0,6.6763306E-1,1.8855766E1,1.5302393E1,8.021369E0,8.205156E0,5.9062843E0,5.0283675E0,0E0,0E0,6.819196E-1,0E0,1.0284285E1,8.459325E0,7.540247E0,6.5877304E0,0E0,0E0,0E0,0E0,0E0,0E0,0E0,0E0,0E0,0E0,0E0,0E0,0E0,0E0,0E0,0E0,0E0,0E0],"parents":[2147483647,0,0,1,1,2,2,4,4,5,5,6,6,7,7,8,8,9,9,10,10,11,11,12,12,13,13,14,14,15,15,16,16,19,19,21,21,22,22,23,23,24,24],"right_children":[2,4,6,-1,8,10,12,14,16,18,20,22,24,26,28,30,32,-1,-1,34,-1,36,38,40,42,-1,-1,-1,-1,-1,-1,-1,-1,-1,-1,-1,-1,-1,-1,-1,-1,-1,-1],"split_conditions":[1E0,0E0,0E0,-9.657821E-2,1E0,1E0,1E0,0E0,1E0,1E0,0E0,1E0,1E0,1E0,1E0,1E0,1E0,7.626746E-2,-1.2602063E-1,1E0,9.8257825E-2,1E0,0E0,0E0,1E0,-1.6355433E-2,3.2437485E-2,-1.148422E-1,2.6740972E-2,-9.345062E-2,1.2220829E-2,-9.961112E-2,3.0567283E-2,8.40745E-3,6.9631726E-2,-8.965384E-2,6.972637E-2,-4.312208E-3,9.823065E-2,-4.107048E-2,3.3317745E-2,3.9285358E-2,9.6039265E-2],"split_indices":[7,12,24,0,25,4,24,7,6,23,13,23,29,27,6,22,29,0,0,0,0,25,14,13,6,0,0,0,0,0,0,0,0,0,0,0,0,0,0,0,0,0,0],"split_type":[0,0,0,0,0,0,0,0,0,0,0,0,0,0,0,0,0,0,0,0,0,0,0,0,0,0,0,0,0,0,0,0,0,0,0,0,0,0,0,0,0,0,0],"sum_hessian":[5.4208356E2,2.2469461E2,3.1738895E2,2.2197783E1,2.0249683E2,3.6062862E1,2.8132608E2,1.5158342E2,5.0913418E1,5.143181E0,3.0919683E1,1.3208757E2,1.4923851E2,1.3566623E2,1.5917177E1,3.444611E1,1.6467306E1,3.6533473E0,1.4898335E0,9.269624E0,2.1650059E1,4.27287E1,8.935887E1,5.326352E1,9.597499E1,7.77562E1,5.7910034E1,9.859682E0,6.0574946E0,2.825126E1,6.1948504E0,2.7162395E0,1.3751066E1,2.8064384E0,6.4631853E0,3.895887E1,3.7698288E0,8.144009E1,7.9187856E0,2.9764175E1,2.3499346E1,6.51194E1,3.0855587E1],"tree_param":{"num_deleted":"0","num_feature":"30","num_nodes":"43","size_leaf_vector":"1"}},{"base_weights":[1.2200667E-3,-7.6896054E-1,4.732784E-2,-9.6084125E-2,-2.8240544E-1,5.291596E-1,-3.480333E-3,-5.128158E-1,1.8964593E-1,9.1379875E-1,-5.5087477E-1,-1.5888515E0,3.502658E-2,-1.1727058E-1,-8.318105E-2,-3.0276394E-3,4.1432295E-2,-8.4831E-2,1.1060396E0,-8.3984023E-1,1.2840553E-1,-2.8417895E-2,-1.7737894E-1,-3.516359E-1,1.5875193E-1,-5.4611474E-2,2.0437403E-2,7.0012674E-2,-8.663458E-2,4.139024E-2,1.2030059E-1,5.1998705E-2,-1.0705781E-1,-3.630285E-2,6.530415E-2,-9.759177E-2,6.4607835E-3,-1.4734921E-2,3.033698E-2],"categories":[],"categories_nodes":[],"categories_segments":[],"categories_sizes":[],"default_left":[0,0,0,0,0,0,0,0,0,0,0,0,0,0,0,0,0,0,0,0,0,0,0,0,0,0,0,0,0,0,0,0,0,0,0,0,0,0,0],"id":42,"left_children":[1,3,5,-1,7,9,11,13,15,17,19,21,23,25,-1,-1,-1,27,29,31,33,-1,-1,35,37,-1,-1,-1,-1,-1,-1,-1,-1,-1,-1,-1,-1,-1,-1],"loss_changes":[1.8939114E1,2.5411263E0,1.2320102E1,0E0,1.1779923E0,2.0445465E1,2.7903946E1,7.7902853E-1,2.0965706E-1,6.961605E0,2.7048001E0,2.1111374E0,2.1408398E1,6.999868E-1,0E0,0E0,0E0,4.7189803E0,1.5202026E0,3.5105991E0,1.4787194E0,0E0,0E0,2.8259409E1,1.5043695E1,0E0,0E0,0E0,0E0,0E0,0E0,0E0,0E0,0E0,0E0,0E0,0E0,0E0,0E0],"parents":[2147483647,0,0,1,1,2,2,4,4,5,5,6,6,7,7,8,8,9,9,10,10,11,11,12,12,13,13,17,17,18,18,19,19,20,20,23,23,24,24],"right_children":[2,4,6,-1,8,10,12,14,16,18,20,22,24,26,-1,-1,-1,28,30,32,34,-1,-1,36,38,-1,-1,-1,-1,-1,-1,-1,-1,-1,-1,-1,-1,-1,-1],"split_conditions":[0E0,1E0,1E0,-9.6084125E-2,1E0,1E0,1E0,0E0,1E0,1E0,1E0,1E0,1E0,1E0,-8.318105E-2,-3.0276394E-3,4.1432295E-2,1E0,0E0,1E0,0E0,-2.8417895E-2,-1.7737894E-1,1E0,1E0,-5.4611474E-2,2.0437403E-2,7.0012674E-2,-8.663458E-2,4.139024E-2,1.2030059E-1,5.1998705E-2,-1.0705781E-1,-3.630285E-2,6.530415E-2,-9.759177E-2,6.4607835E-3,-1.4734921E-2,3.033698E-2],"split_indices":[12,7,2,0,6,1,4,6,24,15,24,9,0,24,0,0,0,27,24,15,14,0,0,27,23,0,0,0,0,0,0,0,0,0,0,0,0,0,0],"split_type":[0,0,0,0,0,0,0,0,0,0,0,0,0,0,0,0,0,0,0,0,0,0,0,0,0,0,0,0,0,0,0,0,0,0,0,0,0,0,0],"sum_hessian":[5.3130133E2,2.9124842E1,5.021765E2,2.018843E1,8.93641E0,4.700421E1,4.551723E2,5.9472E0,2.9892101E0,3.477389E1,1.2230319E1,9.838754E0,4.4533356E2,3.2655847E0,2.681615E0,1.9478378E0,1.0413723E0,5.703706E0,2.9070187E1,8.414449E0,3.8158703E0,1.5364255E0,8.302328E0,1.0750871E2,3.3782483E2,1.1004663E0,2.1651187E0,2.897541E0,2.8061647E0,4.219591E0,2.4850595E1,1.0388024E0,7.375646E0,2.129332E0,1.6865383E0,4.2469074E1,6.5039635E1,1.0838854E2,2.294363E2],"tree_param":{"num_deleted":"0","num_feature":"30","num_nodes":"39","size_leaf_vector":"1"}},{"base_weights":[5.607278E-4,-7.526302E-1,4.289895E-2,-9.556325E-2,-2.69498E-1,1.6096614E-2,9.4570115E-2,-7.363803E-2,-1.8032182E-2,-1.01113245E-1,2.0760295E-1,4.2558532E-2,-2.2654186E-1,-8.5386825E-1,4.7071204E-2,3.9096585E-1,1.3309266E-2,2.1278139E-3,-6.441199E-2,6.123339E-2,-9.8478794E-2,-8.5745715E-2,2.4937157E-2,6.9885515E-3,6.353063E-2,-1.2149813E-1,8.975855E-3],"categories":[],"categories_nodes":[],"categories_segments":[],"categories_sizes":[],"default_left":[0,0,0,0,0,0,0,0,0,0,0,0,0,0,0,0,0,0,0,0,0,0,0,0,0,0,0],"id":43,"left_children":[1,3,5,-1,7,9,-1,-1,11,13,15,-1,17,19,21,23,25,-1,-1,-1,-1,-1,-1,-1,-1,-1,-1],"loss_changes":[1.6814621E1,2.4947453E0,1.20643835E1,0E0,1.1250157E0,1.0926338E1,0E0,0E0,7.741085E-1,3.3733227E1,6.5780034E0,0E0,5.970036E-1,1.0149574E1,4.656798E1,7.41111E0,8.631001E0,0E0,0E0,0E0,0E0,0E0,0E0,0E0,0E0,0E0,0E0],"parents":[2147483647,0,0,1,1,2,2,4,4,5,5,8,8,9,9,10,10,12,12,13,13,14,14,15,15,16,16],"right_children":[2,4,6,-1,8,10,-1,-1,12,14,16,-1,18,20,22,24,26,-1,-1,-1,-1,-1,-1,-1,-1,-1,-1],"split_conditions":[0E0,1E0,1E0,-9.556325E-2,1E0,1E0,9.4570115E-2,-7.363803E-2,1E0,1E0,1E0,4.2558532E-2,1E0,1E0,1E0,0E0,1E0,2.1278139E-3,-6.441199E-2,6.123339E-2,-9.8478794E-2,-8.5745715E-2,2.4937157E-2,6.9885515E-3,6.353063E-2,-1.2149813E-1,8.975855E-3],"split_indices":[12,7,5,0,29,27,0,0,18,0,8,0,13,2,23,13,10,0,0,0,0,0,0,0,0,0,0],"split_type":[0,0,0,0,0,0,0,0,0,0,0,0,0,0,0,0,0,0,0,0,0,0,0,0,0,0,0],"sum_hessian":[5.252774E2,2.7062515E1,4.9821487E2,1.8367058E1,8.695456E0,4.8483884E2,1.3376037E1,2.3689008E0,6.3265553E0,3.0105353E2,1.837853E2,1.6899654E0,4.63659E0,4.873332E1,2.523202E2,9.403159E1,8.97537E1,3.5053272E0,1.1312625E0,3.6933558E0,4.5039963E1,4.5525845E1,2.0679437E2,4.119047E1,5.2841118E1,4.3863716E0,8.536733E1],"tree_param":{"num_deleted":"0","num_feature":"30","num_nodes":"27","size_leaf_vector":"1"}},{"base_weights":[1.4708759E-4,-2.0784985E-1,1.4731088E-1,-9.501254E-2,-1.408136E-1,7.372701E-1,7.263532E-2,-7.1700476E-2,-7.655584E-1,6.349929E-2,8.4508365E-1,-1.8627161E-1,3.1110704E-1,-5.557003E-1,7.3153265E-3,2.4277668E-1,-1.1310321E0,7.8419976E-2,-9.804823E-2,5.055768E-1,9.660344E-2,-6.298672E-1,3.4970336E-2,-7.988148E-2,5.390697E-1,-8.6053334E-2,-9.80727E-3,-3.4727108E-2,1.5506714E-2,-4.302628E-2,6.146065E-2,-5.6767095E-2,-1.3371935E-1,7.0600145E-2,1.3595151E-2,-7.677507E-2,6.786734E-2,-5.786359E-3,9.569093E-2,-3.0325925E-2,4.901552E-2,3.4788806E-2,9.421667E-2],"categories":[],"categories_nodes":[],"categories_segments":[],"categories_sizes":[],"default_left":[0,0,0,0,0,0,0,0,0,0,0,0,0,0,0,0,0,0,0,0,0,0,0,0,0,0,0,0,0,0,0,0,0,0,0,0,0,0,0,0,0,0,0],"id":44,"left_children":[1,3,5,-1,7,9,11,13,15,17,19,21,23,25,27,29,31,-1,-1,33,-1,35,37,39,41,-1,-1,-1,-1,-1,-1,-1,-1,-1,-1,-1,-1,-1,-1,-1,-1,-1,-1],"loss_changes":[1.5955261E1,1.06134615E1,1.3395068E1,0E0,8.549128E0,2.429882E0,1.6856468E1,6.9079247E0,7.5510836E0,5.130811E0,7.18523E-1,1.2885912E1,1.2699798E1,3.451693E0,8.23597E0,1.7850199E0,9.446316E-1,0E0,0E0,6.313882E-1,0E0,8.400444E0,7.6215653E0,6.9190793E0,6.595024E0,0E0,0E0,0E0,0E0,0E0,0E0,0E0,0E0,0E0,0E0,0E0,0E0,0E0,0E0,0E0,0E0,0E0,0E0],"parents":[2147483647,0,0,1,1,2,2,4,4,5,5,6,6,7,7,8,8,9,9,10,10,11,11,12,12,13,13,14,14,15,15,16,16,19,19,21,21,22,22,23,23,24,24],"right_children":[2,4,6,-1,8,10,12,14,16,18,20,22,24,26,28,30,32,-1,-1,34,-1,36,38,40,42,-1,-1,-1,-1,-1,-1,-1,-1,-1,-1,-1,-1,-1,-1,-1,-1,-1,-1],"split_conditions":[1E0,0E0,0E0,-9.501254E-2,1E0,1E0,1E0,1E0,1E0,1E0,0E0,1E0,1E0,1E0,1E0,0E0,1E0,7.8419976E-2,-9.804823E-2,1E0,9.660344E-2,1E0,0E0,1E0,1E0,-8.6053334E-2,-9.80727E-3,-3.4727108E-2,1.5506714E-2,-4.302628E-2,6.146065E-2,-5.6767095E-2,-1.3371935E-1,7.0600145E-2,1.3595151E-2,-7.677507E-2,6.786734E-2,-5.786359E-3,9.569093E-2,-3.0325925E-2,4.901552E-2,3.4788806E-2,9.421667E-2],"split_indices":[7,12,24,0,17,4,24,26,11,16,13,23,29,27,0,13,25,0,0,29,0,25,14,25,6,0,0,0,0,0,0,0,0,0,0,0,0,0,0,0,0,0,0],"split_type":[0,0,0,0,0,0,0,0,0,0,0,0,0,0,0,0,0,0,0,0,0,0,0,0,0,0,0,0,0,0,0,0,0,0,0,0,0,0,0,0,0,0,0],"sum_hessian":[5.1924963E2,2.1498453E2,3.0426514E2,1.671626E1,1.9826826E2,3.318901E1,2.710761E2,1.7952309E2,1.8745184E1,4.7973537E0,2.8391659E1,1.3007431E2,1.410018E2,2.4348303E1,1.5517477E2,5.076084E0,1.36691E1,2.9853146E0,1.8120393E0,8.818442E0,1.9573215E1,4.2670982E1,8.7403336E1,5.2170883E1,8.883092E1,1.4085384E1,1.0262919E1,4.5244087E1,1.0993069E2,1.7504644E0,3.32562E0,4.6676626E0,9.001437E0,5.1278715E0,3.6905708E0,3.8977158E1,3.6938238E0,8.025896E1,7.1443763E0,3.781894E1,1.4351942E1,6.1517365E1,2.7313555E1],"tree_param":{"num_deleted":"0","num_feature":"30","num_nodes":"43","size_leaf_vector":"1"}},{"base_weights":[3.9345023E-4,-7.306745E-1,3.7223794E-2,-9.442907E-2,-2.8189573E-1,1.3045478E-2,9.35358E-2,-4.9452585E-1,1.5490864E-1,-3.5348395E-1,6.9567874E-2,-1.03107534E-1,-8.125019E-2,3.2222595E-2,-7.710051E-3,3.731115E-1,-5.1421607E-1,1.7975152E-2,4.519022E-1,-4.9019136E-2,1.910506E-2,6.7296E-2,-5.0722673E-3,-6.4880356E-2,3.684246E-2,3.6688097E-2,-2.3585283E-3,6.260869E-2,-8.310871E-3],"categories":[],"categories_nodes":[],"categories_segments":[],"categories_sizes":[],"default_left":[0,0,0,0,0,0,0,0,0,0,0,0,0,0,0,0,0,0,0,0,0,0,0,0,0,0,0,0,0],"id":45,"left_children":[1,3,5,-1,7,9,-1,11,13,15,17,19,-1,-1,-1,21,23,25,27,-1,-1,-1,-1,-1,-1,-1,-1,-1,-1],"loss_changes":[1.3792708E1,2.0891552E0,1.0577855E1,0E0,9.449075E-1,9.88398E0,0E0,7.285234E-1,1.7322475E-1,7.636859E0,8.141674E0,5.5716336E-1,0E0,0E0,0E0,1.5753081E0,6.490052E0,5.3024898E0,4.6260023E0,0E0,0E0,0E0,0E0,0E0,0E0,0E0,0E0,0E0,0E0],"parents":[2147483647,0,0,1,1,2,2,4,4,5,5,7,7,8,8,9,9,10,10,11,11,15,15,16,16,17,17,18,18],"right_children":[2,4,6,-1,8,10,-1,12,14,16,18,20,-1,-1,-1,22,24,26,28,-1,-1,-1,-1,-1,-1,-1,-1,-1,-1],"split_conditions":[0E0,1E0,1E0,-9.442907E-2,1E0,1E0,9.35358E-2,0E0,1E0,1E0,1E0,1E0,-8.125019E-2,3.2222595E-2,-7.710051E-3,0E0,1E0,0E0,1E0,-4.9019136E-2,1.910506E-2,6.7296E-2,-5.0722673E-3,-6.4880356E-2,3.684246E-2,